digraph Tree {
node [shape=box, style="filled, rounded", color="black", fontname=helvetica] ;
edge [fontname=helvetica] ;
0 [label=<alcohol &le; 10.85<br/>gini = 0.677<br/>samples = 3526<br/>value = [15, 118, 1053, 1572, 638, 126, 4]<br/>class = 6>, fillcolor="#39e5e236"] ;
1 [label=<volatile.acidity &le; 0.257<br/>gini = 0.622<br/>samples = 2210<br/>value = [8, 92, 933, 964, 188, 24, 1]<br/>class = 6>, fillcolor="#39e5e206"] ;
0 -> 1 [labeldistance=2.5, labelangle=45, headlabel="True"] ;
2 [label=<volatile.acidity &le; 0.207<br/>gini = 0.617<br/>samples = 1048<br/>value = [4, 19, 293, 557, 155, 20, 0]<br/>class = 6>, fillcolor="#39e5e259"] ;
1 -> 2 ;
3 [label=<alcohol &le; 9.05<br/>gini = 0.615<br/>samples = 524<br/>value = [1, 8, 107, 289, 102, 17, 0]<br/>class = 6>, fillcolor="#39e5e26f"] ;
2 -> 3 ;
4 [label=<free.sulfur.dioxide &le; 35.0<br/>gini = 0.723<br/>samples = 58<br/>value = [0, 1, 7, 19, 20, 11, 0]<br/>class = 7>, fillcolor="#3956e507"] ;
3 -> 4 ;
5 [label=<density &le; 0.998<br/>gini = 0.379<br/>samples = 26<br/>value = [0, 0, 2, 4, 20, 0, 0]<br/>class = 7>, fillcolor="#3956e5b9"] ;
4 -> 5 ;
6 [label=<fixed.acidity &le; 6.1<br/>gini = 0.444<br/>samples = 6<br/>value = [0, 0, 2, 4, 0, 0, 0]<br/>class = 6>, fillcolor="#39e5e27f"] ;
5 -> 6 ;
7 [label=<gini = 0.0<br/>samples = 2<br/>value = [0, 0, 2, 0, 0, 0, 0]<br/>class = 5>, fillcolor="#39e54dff"] ;
6 -> 7 ;
8 [label=<gini = 0.0<br/>samples = 4<br/>value = [0, 0, 0, 4, 0, 0, 0]<br/>class = 6>, fillcolor="#39e5e2ff"] ;
6 -> 8 ;
9 [label=<gini = 0.0<br/>samples = 20<br/>value = [0, 0, 0, 0, 20, 0, 0]<br/>class = 7>, fillcolor="#3956e5ff"] ;
5 -> 9 ;
10 [label=<fixed.acidity &le; 7.2<br/>gini = 0.637<br/>samples = 32<br/>value = [0, 1, 5, 15, 0, 11, 0]<br/>class = 6>, fillcolor="#39e5e231"] ;
4 -> 10 ;
11 [label=<total.sulfur.dioxide &le; 186.0<br/>gini = 0.153<br/>samples = 12<br/>value = [0, 0, 1, 11, 0, 0, 0]<br/>class = 6>, fillcolor="#39e5e2e8"] ;
10 -> 11 ;
12 [label=<gini = 0.0<br/>samples = 11<br/>value = [0, 0, 0, 11, 0, 0, 0]<br/>class = 6>, fillcolor="#39e5e2ff"] ;
11 -> 12 ;
13 [label=<gini = 0.0<br/>samples = 1<br/>value = [0, 0, 1, 0, 0, 0, 0]<br/>class = 5>, fillcolor="#39e54dff"] ;
11 -> 13 ;
14 [label=<residual.sugar &le; 13.4<br/>gini = 0.615<br/>samples = 20<br/>value = [0, 1, 4, 4, 0, 11, 0]<br/>class = 8>, fillcolor="#b139e570"] ;
10 -> 14 ;
15 [label=<chlorides &le; 0.046<br/>gini = 0.667<br/>samples = 9<br/>value = [0, 1, 4, 3, 0, 1, 0]<br/>class = 5>, fillcolor="#39e54d2a"] ;
14 -> 15 ;
16 [label=<free.sulfur.dioxide &le; 42.0<br/>gini = 0.5<br/>samples = 6<br/>value = [0, 1, 4, 0, 0, 1, 0]<br/>class = 5>, fillcolor="#39e54d99"] ;
15 -> 16 ;
17 [label=<residual.sugar &le; 8.7<br/>gini = 0.5<br/>samples = 2<br/>value = [0, 1, 0, 0, 0, 1, 0]<br/>class = 4>, fillcolor="#b7e53900"] ;
16 -> 17 ;
18 [label=<gini = 0.0<br/>samples = 1<br/>value = [0, 1, 0, 0, 0, 0, 0]<br/>class = 4>, fillcolor="#b7e539ff"] ;
17 -> 18 ;
19 [label=<gini = 0.0<br/>samples = 1<br/>value = [0, 0, 0, 0, 0, 1, 0]<br/>class = 8>, fillcolor="#b139e5ff"] ;
17 -> 19 ;
20 [label=<gini = 0.0<br/>samples = 4<br/>value = [0, 0, 4, 0, 0, 0, 0]<br/>class = 5>, fillcolor="#39e54dff"] ;
16 -> 20 ;
21 [label=<gini = 0.0<br/>samples = 3<br/>value = [0, 0, 0, 3, 0, 0, 0]<br/>class = 6>, fillcolor="#39e5e2ff"] ;
15 -> 21 ;
22 [label=<density &le; 1.001<br/>gini = 0.165<br/>samples = 11<br/>value = [0, 0, 0, 1, 0, 10, 0]<br/>class = 8>, fillcolor="#b139e5e6"] ;
14 -> 22 ;
23 [label=<gini = 0.0<br/>samples = 10<br/>value = [0, 0, 0, 0, 0, 10, 0]<br/>class = 8>, fillcolor="#b139e5ff"] ;
22 -> 23 ;
24 [label=<gini = 0.0<br/>samples = 1<br/>value = [0, 0, 0, 1, 0, 0, 0]<br/>class = 6>, fillcolor="#39e5e2ff"] ;
22 -> 24 ;
25 [label=<sulphates &le; 0.815<br/>gini = 0.587<br/>samples = 466<br/>value = [1, 7, 100, 270, 82, 6, 0]<br/>class = 6>, fillcolor="#39e5e276"] ;
3 -> 25 ;
26 [label=<residual.sugar &le; 2.35<br/>gini = 0.58<br/>samples = 459<br/>value = [1, 7, 99, 270, 76, 6, 0]<br/>class = 6>, fillcolor="#39e5e279"] ;
25 -> 26 ;
27 [label=<free.sulfur.dioxide &le; 24.5<br/>gini = 0.636<br/>samples = 191<br/>value = [1, 5, 56, 95, 33, 1, 0]<br/>class = 6>, fillcolor="#39e5e24a"] ;
26 -> 27 ;
28 [label=<sulphates &le; 0.485<br/>gini = 0.611<br/>samples = 83<br/>value = [1, 2, 39, 33, 8, 0, 0]<br/>class = 5>, fillcolor="#39e54d1f"] ;
27 -> 28 ;
29 [label=<alcohol &le; 10.15<br/>gini = 0.534<br/>samples = 41<br/>value = [1, 0, 26, 9, 5, 0, 0]<br/>class = 5>, fillcolor="#39e54d87"] ;
28 -> 29 ;
30 [label=<pH &le; 3.225<br/>gini = 0.4<br/>samples = 25<br/>value = [1, 0, 19, 2, 3, 0, 0]<br/>class = 5>, fillcolor="#39e54db9"] ;
29 -> 30 ;
31 [label=<pH &le; 3.135<br/>gini = 0.627<br/>samples = 13<br/>value = [1, 0, 7, 2, 3, 0, 0]<br/>class = 5>, fillcolor="#39e54d66"] ;
30 -> 31 ;
32 [label=<chlorides &le; 0.151<br/>gini = 0.37<br/>samples = 9<br/>value = [1, 0, 7, 1, 0, 0, 0]<br/>class = 5>, fillcolor="#39e54dbf"] ;
31 -> 32 ;
33 [label=<sulphates &le; 0.3<br/>gini = 0.219<br/>samples = 8<br/>value = [1, 0, 7, 0, 0, 0, 0]<br/>class = 5>, fillcolor="#39e54ddb"] ;
32 -> 33 ;
34 [label=<gini = 0.0<br/>samples = 1<br/>value = [1, 0, 0, 0, 0, 0, 0]<br/>class = 3>, fillcolor="#e58139ff"] ;
33 -> 34 ;
35 [label=<gini = 0.0<br/>samples = 7<br/>value = [0, 0, 7, 0, 0, 0, 0]<br/>class = 5>, fillcolor="#39e54dff"] ;
33 -> 35 ;
36 [label=<gini = 0.0<br/>samples = 1<br/>value = [0, 0, 0, 1, 0, 0, 0]<br/>class = 6>, fillcolor="#39e5e2ff"] ;
32 -> 36 ;
37 [label=<chlorides &le; 0.042<br/>gini = 0.375<br/>samples = 4<br/>value = [0, 0, 0, 1, 3, 0, 0]<br/>class = 7>, fillcolor="#3956e5aa"] ;
31 -> 37 ;
38 [label=<gini = 0.0<br/>samples = 1<br/>value = [0, 0, 0, 1, 0, 0, 0]<br/>class = 6>, fillcolor="#39e5e2ff"] ;
37 -> 38 ;
39 [label=<gini = 0.0<br/>samples = 3<br/>value = [0, 0, 0, 0, 3, 0, 0]<br/>class = 7>, fillcolor="#3956e5ff"] ;
37 -> 39 ;
40 [label=<gini = 0.0<br/>samples = 12<br/>value = [0, 0, 12, 0, 0, 0, 0]<br/>class = 5>, fillcolor="#39e54dff"] ;
30 -> 40 ;
41 [label=<density &le; 0.994<br/>gini = 0.602<br/>samples = 16<br/>value = [0, 0, 7, 7, 2, 0, 0]<br/>class = 5>, fillcolor="#39e54d00"] ;
29 -> 41 ;
42 [label=<free.sulfur.dioxide &le; 20.5<br/>gini = 0.569<br/>samples = 12<br/>value = [0, 0, 7, 3, 2, 0, 0]<br/>class = 5>, fillcolor="#39e54d71"] ;
41 -> 42 ;
43 [label=<free.sulfur.dioxide &le; 19.0<br/>gini = 0.656<br/>samples = 8<br/>value = [0, 0, 3, 3, 2, 0, 0]<br/>class = 5>, fillcolor="#39e54d00"] ;
42 -> 43 ;
44 [label=<pH &le; 3.22<br/>gini = 0.5<br/>samples = 6<br/>value = [0, 0, 3, 3, 0, 0, 0]<br/>class = 5>, fillcolor="#39e54d00"] ;
43 -> 44 ;
45 [label=<density &le; 0.993<br/>gini = 0.375<br/>samples = 4<br/>value = [0, 0, 3, 1, 0, 0, 0]<br/>class = 5>, fillcolor="#39e54daa"] ;
44 -> 45 ;
46 [label=<gini = 0.0<br/>samples = 3<br/>value = [0, 0, 3, 0, 0, 0, 0]<br/>class = 5>, fillcolor="#39e54dff"] ;
45 -> 46 ;
47 [label=<gini = 0.0<br/>samples = 1<br/>value = [0, 0, 0, 1, 0, 0, 0]<br/>class = 6>, fillcolor="#39e5e2ff"] ;
45 -> 47 ;
48 [label=<gini = 0.0<br/>samples = 2<br/>value = [0, 0, 0, 2, 0, 0, 0]<br/>class = 6>, fillcolor="#39e5e2ff"] ;
44 -> 48 ;
49 [label=<gini = 0.0<br/>samples = 2<br/>value = [0, 0, 0, 0, 2, 0, 0]<br/>class = 7>, fillcolor="#3956e5ff"] ;
43 -> 49 ;
50 [label=<gini = 0.0<br/>samples = 4<br/>value = [0, 0, 4, 0, 0, 0, 0]<br/>class = 5>, fillcolor="#39e54dff"] ;
42 -> 50 ;
51 [label=<gini = 0.0<br/>samples = 4<br/>value = [0, 0, 0, 4, 0, 0, 0]<br/>class = 6>, fillcolor="#39e5e2ff"] ;
41 -> 51 ;
52 [label=<fixed.acidity &le; 6.8<br/>gini = 0.57<br/>samples = 42<br/>value = [0, 2, 13, 24, 3, 0, 0]<br/>class = 6>, fillcolor="#39e5e261"] ;
28 -> 52 ;
53 [label=<free.sulfur.dioxide &le; 12.5<br/>gini = 0.291<br/>samples = 17<br/>value = [0, 0, 0, 14, 3, 0, 0]<br/>class = 6>, fillcolor="#39e5e2c8"] ;
52 -> 53 ;
54 [label=<gini = 0.0<br/>samples = 1<br/>value = [0, 0, 0, 0, 1, 0, 0]<br/>class = 7>, fillcolor="#3956e5ff"] ;
53 -> 54 ;
55 [label=<density &le; 0.991<br/>gini = 0.219<br/>samples = 16<br/>value = [0, 0, 0, 14, 2, 0, 0]<br/>class = 6>, fillcolor="#39e5e2db"] ;
53 -> 55 ;
56 [label=<gini = 0.0<br/>samples = 1<br/>value = [0, 0, 0, 0, 1, 0, 0]<br/>class = 7>, fillcolor="#3956e5ff"] ;
55 -> 56 ;
57 [label=<volatile.acidity &le; 0.115<br/>gini = 0.124<br/>samples = 15<br/>value = [0, 0, 0, 14, 1, 0, 0]<br/>class = 6>, fillcolor="#39e5e2ed"] ;
55 -> 57 ;
58 [label=<fixed.acidity &le; 6.3<br/>gini = 0.5<br/>samples = 2<br/>value = [0, 0, 0, 1, 1, 0, 0]<br/>class = 6>, fillcolor="#39e5e200"] ;
57 -> 58 ;
59 [label=<gini = 0.0<br/>samples = 1<br/>value = [0, 0, 0, 0, 1, 0, 0]<br/>class = 7>, fillcolor="#3956e5ff"] ;
58 -> 59 ;
60 [label=<gini = 0.0<br/>samples = 1<br/>value = [0, 0, 0, 1, 0, 0, 0]<br/>class = 6>, fillcolor="#39e5e2ff"] ;
58 -> 60 ;
61 [label=<gini = 0.0<br/>samples = 13<br/>value = [0, 0, 0, 13, 0, 0, 0]<br/>class = 6>, fillcolor="#39e5e2ff"] ;
57 -> 61 ;
62 [label=<volatile.acidity &le; 0.195<br/>gini = 0.563<br/>samples = 25<br/>value = [0, 2, 13, 10, 0, 0, 0]<br/>class = 5>, fillcolor="#39e54d33"] ;
52 -> 62 ;
63 [label=<total.sulfur.dioxide &le; 125.0<br/>gini = 0.58<br/>samples = 20<br/>value = [0, 2, 8, 10, 0, 0, 0]<br/>class = 6>, fillcolor="#39e5e22a"] ;
62 -> 63 ;
64 [label=<density &le; 0.995<br/>gini = 0.5<br/>samples = 12<br/>value = [0, 2, 2, 8, 0, 0, 0]<br/>class = 6>, fillcolor="#39e5e299"] ;
63 -> 64 ;
65 [label=<alcohol &le; 10.75<br/>gini = 0.32<br/>samples = 10<br/>value = [0, 0, 2, 8, 0, 0, 0]<br/>class = 6>, fillcolor="#39e5e2bf"] ;
64 -> 65 ;
66 [label=<volatile.acidity &le; 0.155<br/>gini = 0.198<br/>samples = 9<br/>value = [0, 0, 1, 8, 0, 0, 0]<br/>class = 6>, fillcolor="#39e5e2df"] ;
65 -> 66 ;
67 [label=<gini = 0.0<br/>samples = 1<br/>value = [0, 0, 1, 0, 0, 0, 0]<br/>class = 5>, fillcolor="#39e54dff"] ;
66 -> 67 ;
68 [label=<gini = 0.0<br/>samples = 8<br/>value = [0, 0, 0, 8, 0, 0, 0]<br/>class = 6>, fillcolor="#39e5e2ff"] ;
66 -> 68 ;
69 [label=<gini = 0.0<br/>samples = 1<br/>value = [0, 0, 1, 0, 0, 0, 0]<br/>class = 5>, fillcolor="#39e54dff"] ;
65 -> 69 ;
70 [label=<gini = 0.0<br/>samples = 2<br/>value = [0, 2, 0, 0, 0, 0, 0]<br/>class = 4>, fillcolor="#b7e539ff"] ;
64 -> 70 ;
71 [label=<total.sulfur.dioxide &le; 179.5<br/>gini = 0.375<br/>samples = 8<br/>value = [0, 0, 6, 2, 0, 0, 0]<br/>class = 5>, fillcolor="#39e54daa"] ;
63 -> 71 ;
72 [label=<gini = 0.0<br/>samples = 6<br/>value = [0, 0, 6, 0, 0, 0, 0]<br/>class = 5>, fillcolor="#39e54dff"] ;
71 -> 72 ;
73 [label=<gini = 0.0<br/>samples = 2<br/>value = [0, 0, 0, 2, 0, 0, 0]<br/>class = 6>, fillcolor="#39e5e2ff"] ;
71 -> 73 ;
74 [label=<gini = 0.0<br/>samples = 5<br/>value = [0, 0, 5, 0, 0, 0, 0]<br/>class = 5>, fillcolor="#39e54dff"] ;
62 -> 74 ;
75 [label=<residual.sugar &le; 2.05<br/>gini = 0.591<br/>samples = 108<br/>value = [0, 3, 17, 62, 25, 1, 0]<br/>class = 6>, fillcolor="#39e5e272"] ;
27 -> 75 ;
76 [label=<total.sulfur.dioxide &le; 90.0<br/>gini = 0.567<br/>samples = 101<br/>value = [0, 3, 17, 61, 20, 0, 0]<br/>class = 6>, fillcolor="#39e5e281"] ;
75 -> 76 ;
77 [label=<volatile.acidity &le; 0.165<br/>gini = 0.32<br/>samples = 5<br/>value = [0, 0, 1, 0, 4, 0, 0]<br/>class = 7>, fillcolor="#3956e5bf"] ;
76 -> 77 ;
78 [label=<gini = 0.0<br/>samples = 1<br/>value = [0, 0, 1, 0, 0, 0, 0]<br/>class = 5>, fillcolor="#39e54dff"] ;
77 -> 78 ;
79 [label=<gini = 0.0<br/>samples = 4<br/>value = [0, 0, 0, 0, 4, 0, 0]<br/>class = 7>, fillcolor="#3956e5ff"] ;
77 -> 79 ;
80 [label=<density &le; 0.994<br/>gini = 0.54<br/>samples = 96<br/>value = [0, 3, 16, 61, 16, 0, 0]<br/>class = 6>, fillcolor="#39e5e28f"] ;
76 -> 80 ;
81 [label=<fixed.acidity &le; 6.45<br/>gini = 0.593<br/>samples = 80<br/>value = [0, 3, 15, 46, 16, 0, 0]<br/>class = 6>, fillcolor="#39e5e278"] ;
80 -> 81 ;
82 [label=<citric.acid &le; 0.255<br/>gini = 0.355<br/>samples = 26<br/>value = [0, 0, 6, 20, 0, 0, 0]<br/>class = 6>, fillcolor="#39e5e2b3"] ;
81 -> 82 ;
83 [label=<pH &le; 3.335<br/>gini = 0.494<br/>samples = 9<br/>value = [0, 0, 5, 4, 0, 0, 0]<br/>class = 5>, fillcolor="#39e54d33"] ;
82 -> 83 ;
84 [label=<gini = 0.0<br/>samples = 3<br/>value = [0, 0, 3, 0, 0, 0, 0]<br/>class = 5>, fillcolor="#39e54dff"] ;
83 -> 84 ;
85 [label=<fixed.acidity &le; 5.95<br/>gini = 0.444<br/>samples = 6<br/>value = [0, 0, 2, 4, 0, 0, 0]<br/>class = 6>, fillcolor="#39e5e27f"] ;
83 -> 85 ;
86 [label=<chlorides &le; 0.037<br/>gini = 0.444<br/>samples = 3<br/>value = [0, 0, 2, 1, 0, 0, 0]<br/>class = 5>, fillcolor="#39e54d7f"] ;
85 -> 86 ;
87 [label=<gini = 0.0<br/>samples = 1<br/>value = [0, 0, 0, 1, 0, 0, 0]<br/>class = 6>, fillcolor="#39e5e2ff"] ;
86 -> 87 ;
88 [label=<gini = 0.0<br/>samples = 2<br/>value = [0, 0, 2, 0, 0, 0, 0]<br/>class = 5>, fillcolor="#39e54dff"] ;
86 -> 88 ;
89 [label=<gini = 0.0<br/>samples = 3<br/>value = [0, 0, 0, 3, 0, 0, 0]<br/>class = 6>, fillcolor="#39e5e2ff"] ;
85 -> 89 ;
90 [label=<residual.sugar &le; 0.9<br/>gini = 0.111<br/>samples = 17<br/>value = [0, 0, 1, 16, 0, 0, 0]<br/>class = 6>, fillcolor="#39e5e2ef"] ;
82 -> 90 ;
91 [label=<gini = 0.0<br/>samples = 1<br/>value = [0, 0, 1, 0, 0, 0, 0]<br/>class = 5>, fillcolor="#39e54dff"] ;
90 -> 91 ;
92 [label=<gini = 0.0<br/>samples = 16<br/>value = [0, 0, 0, 16, 0, 0, 0]<br/>class = 6>, fillcolor="#39e5e2ff"] ;
90 -> 92 ;
93 [label=<chlorides &le; 0.042<br/>gini = 0.65<br/>samples = 54<br/>value = [0, 3, 9, 26, 16, 0, 0]<br/>class = 6>, fillcolor="#39e5e243"] ;
81 -> 93 ;
94 [label=<alcohol &le; 10.65<br/>gini = 0.518<br/>samples = 28<br/>value = [0, 1, 2, 18, 7, 0, 0]<br/>class = 6>, fillcolor="#39e5e286"] ;
93 -> 94 ;
95 [label=<fixed.acidity &le; 7.7<br/>gini = 0.415<br/>samples = 20<br/>value = [0, 1, 2, 15, 2, 0, 0]<br/>class = 6>, fillcolor="#39e5e2b8"] ;
94 -> 95 ;
96 [label=<citric.acid &le; 0.275<br/>gini = 0.133<br/>samples = 14<br/>value = [0, 0, 1, 13, 0, 0, 0]<br/>class = 6>, fillcolor="#39e5e2eb"] ;
95 -> 96 ;
97 [label=<gini = 0.0<br/>samples = 1<br/>value = [0, 0, 1, 0, 0, 0, 0]<br/>class = 5>, fillcolor="#39e54dff"] ;
96 -> 97 ;
98 [label=<gini = 0.0<br/>samples = 13<br/>value = [0, 0, 0, 13, 0, 0, 0]<br/>class = 6>, fillcolor="#39e5e2ff"] ;
96 -> 98 ;
99 [label=<volatile.acidity &le; 0.175<br/>gini = 0.722<br/>samples = 6<br/>value = [0, 1, 1, 2, 2, 0, 0]<br/>class = 6>, fillcolor="#39e5e200"] ;
95 -> 99 ;
100 [label=<gini = 0.0<br/>samples = 2<br/>value = [0, 0, 0, 0, 2, 0, 0]<br/>class = 7>, fillcolor="#3956e5ff"] ;
99 -> 100 ;
101 [label=<free.sulfur.dioxide &le; 36.0<br/>gini = 0.625<br/>samples = 4<br/>value = [0, 1, 1, 2, 0, 0, 0]<br/>class = 6>, fillcolor="#39e5e255"] ;
99 -> 101 ;
102 [label=<density &le; 0.993<br/>gini = 0.5<br/>samples = 2<br/>value = [0, 1, 1, 0, 0, 0, 0]<br/>class = 4>, fillcolor="#b7e53900"] ;
101 -> 102 ;
103 [label=<gini = 0.0<br/>samples = 1<br/>value = [0, 1, 0, 0, 0, 0, 0]<br/>class = 4>, fillcolor="#b7e539ff"] ;
102 -> 103 ;
104 [label=<gini = 0.0<br/>samples = 1<br/>value = [0, 0, 1, 0, 0, 0, 0]<br/>class = 5>, fillcolor="#39e54dff"] ;
102 -> 104 ;
105 [label=<gini = 0.0<br/>samples = 2<br/>value = [0, 0, 0, 2, 0, 0, 0]<br/>class = 6>, fillcolor="#39e5e2ff"] ;
101 -> 105 ;
106 [label=<free.sulfur.dioxide &le; 35.0<br/>gini = 0.469<br/>samples = 8<br/>value = [0, 0, 0, 3, 5, 0, 0]<br/>class = 7>, fillcolor="#3956e566"] ;
94 -> 106 ;
107 [label=<gini = 0.0<br/>samples = 4<br/>value = [0, 0, 0, 0, 4, 0, 0]<br/>class = 7>, fillcolor="#3956e5ff"] ;
106 -> 107 ;
108 [label=<citric.acid &le; 0.245<br/>gini = 0.375<br/>samples = 4<br/>value = [0, 0, 0, 3, 1, 0, 0]<br/>class = 6>, fillcolor="#39e5e2aa"] ;
106 -> 108 ;
109 [label=<gini = 0.0<br/>samples = 1<br/>value = [0, 0, 0, 0, 1, 0, 0]<br/>class = 7>, fillcolor="#3956e5ff"] ;
108 -> 109 ;
110 [label=<gini = 0.0<br/>samples = 3<br/>value = [0, 0, 0, 3, 0, 0, 0]<br/>class = 6>, fillcolor="#39e5e2ff"] ;
108 -> 110 ;
111 [label=<free.sulfur.dioxide &le; 60.0<br/>gini = 0.707<br/>samples = 26<br/>value = [0, 2, 7, 8, 9, 0, 0]<br/>class = 7>, fillcolor="#3956e50e"] ;
93 -> 111 ;
112 [label=<citric.acid &le; 0.335<br/>gini = 0.688<br/>samples = 23<br/>value = [0, 2, 4, 8, 9, 0, 0]<br/>class = 7>, fillcolor="#3956e511"] ;
111 -> 112 ;
113 [label=<alcohol &le; 9.25<br/>gini = 0.397<br/>samples = 11<br/>value = [0, 0, 0, 3, 8, 0, 0]<br/>class = 7>, fillcolor="#3956e59f"] ;
112 -> 113 ;
114 [label=<gini = 0.0<br/>samples = 2<br/>value = [0, 0, 0, 2, 0, 0, 0]<br/>class = 6>, fillcolor="#39e5e2ff"] ;
113 -> 114 ;
115 [label=<alcohol &le; 10.65<br/>gini = 0.198<br/>samples = 9<br/>value = [0, 0, 0, 1, 8, 0, 0]<br/>class = 7>, fillcolor="#3956e5df"] ;
113 -> 115 ;
116 [label=<gini = 0.0<br/>samples = 8<br/>value = [0, 0, 0, 0, 8, 0, 0]<br/>class = 7>, fillcolor="#3956e5ff"] ;
115 -> 116 ;
117 [label=<gini = 0.0<br/>samples = 1<br/>value = [0, 0, 0, 1, 0, 0, 0]<br/>class = 6>, fillcolor="#39e5e2ff"] ;
115 -> 117 ;
118 [label=<chlorides &le; 0.047<br/>gini = 0.681<br/>samples = 12<br/>value = [0, 2, 4, 5, 1, 0, 0]<br/>class = 6>, fillcolor="#39e5e220"] ;
112 -> 118 ;
119 [label=<total.sulfur.dioxide &le; 138.0<br/>gini = 0.444<br/>samples = 6<br/>value = [0, 2, 0, 4, 0, 0, 0]<br/>class = 6>, fillcolor="#39e5e27f"] ;
118 -> 119 ;
120 [label=<gini = 0.0<br/>samples = 2<br/>value = [0, 2, 0, 0, 0, 0, 0]<br/>class = 4>, fillcolor="#b7e539ff"] ;
119 -> 120 ;
121 [label=<gini = 0.0<br/>samples = 4<br/>value = [0, 0, 0, 4, 0, 0, 0]<br/>class = 6>, fillcolor="#39e5e2ff"] ;
119 -> 121 ;
122 [label=<chlorides &le; 0.095<br/>gini = 0.5<br/>samples = 6<br/>value = [0, 0, 4, 1, 1, 0, 0]<br/>class = 5>, fillcolor="#39e54d99"] ;
118 -> 122 ;
123 [label=<sulphates &le; 0.385<br/>gini = 0.32<br/>samples = 5<br/>value = [0, 0, 4, 1, 0, 0, 0]<br/>class = 5>, fillcolor="#39e54dbf"] ;
122 -> 123 ;
124 [label=<gini = 0.0<br/>samples = 1<br/>value = [0, 0, 0, 1, 0, 0, 0]<br/>class = 6>, fillcolor="#39e5e2ff"] ;
123 -> 124 ;
125 [label=<gini = 0.0<br/>samples = 4<br/>value = [0, 0, 4, 0, 0, 0, 0]<br/>class = 5>, fillcolor="#39e54dff"] ;
123 -> 125 ;
126 [label=<gini = 0.0<br/>samples = 1<br/>value = [0, 0, 0, 0, 1, 0, 0]<br/>class = 7>, fillcolor="#3956e5ff"] ;
122 -> 126 ;
127 [label=<gini = 0.0<br/>samples = 3<br/>value = [0, 0, 3, 0, 0, 0, 0]<br/>class = 5>, fillcolor="#39e54dff"] ;
111 -> 127 ;
128 [label=<alcohol &le; 9.15<br/>gini = 0.117<br/>samples = 16<br/>value = [0, 0, 1, 15, 0, 0, 0]<br/>class = 6>, fillcolor="#39e5e2ee"] ;
80 -> 128 ;
129 [label=<gini = 0.0<br/>samples = 1<br/>value = [0, 0, 1, 0, 0, 0, 0]<br/>class = 5>, fillcolor="#39e54dff"] ;
128 -> 129 ;
130 [label=<gini = 0.0<br/>samples = 15<br/>value = [0, 0, 0, 15, 0, 0, 0]<br/>class = 6>, fillcolor="#39e5e2ff"] ;
128 -> 130 ;
131 [label=<chlorides &le; 0.046<br/>gini = 0.449<br/>samples = 7<br/>value = [0, 0, 0, 1, 5, 1, 0]<br/>class = 7>, fillcolor="#3956e5aa"] ;
75 -> 131 ;
132 [label=<free.sulfur.dioxide &le; 28.5<br/>gini = 0.278<br/>samples = 6<br/>value = [0, 0, 0, 1, 5, 0, 0]<br/>class = 7>, fillcolor="#3956e5cc"] ;
131 -> 132 ;
133 [label=<gini = 0.0<br/>samples = 1<br/>value = [0, 0, 0, 1, 0, 0, 0]<br/>class = 6>, fillcolor="#39e5e2ff"] ;
132 -> 133 ;
134 [label=<gini = 0.0<br/>samples = 5<br/>value = [0, 0, 0, 0, 5, 0, 0]<br/>class = 7>, fillcolor="#3956e5ff"] ;
132 -> 134 ;
135 [label=<gini = 0.0<br/>samples = 1<br/>value = [0, 0, 0, 0, 0, 1, 0]<br/>class = 8>, fillcolor="#b139e5ff"] ;
131 -> 135 ;
136 [label=<chlorides &le; 0.041<br/>gini = 0.522<br/>samples = 268<br/>value = [0, 2, 43, 175, 43, 5, 0]<br/>class = 6>, fillcolor="#39e5e296"] ;
26 -> 136 ;
137 [label=<total.sulfur.dioxide &le; 103.5<br/>gini = 0.627<br/>samples = 62<br/>value = [0, 0, 8, 31, 20, 3, 0]<br/>class = 6>, fillcolor="#39e5e243"] ;
136 -> 137 ;
138 [label=<residual.sugar &le; 9.15<br/>gini = 0.403<br/>samples = 12<br/>value = [0, 0, 1, 9, 0, 2, 0]<br/>class = 6>, fillcolor="#39e5e2b2"] ;
137 -> 138 ;
139 [label=<alcohol &le; 9.25<br/>gini = 0.18<br/>samples = 10<br/>value = [0, 0, 1, 9, 0, 0, 0]<br/>class = 6>, fillcolor="#39e5e2e3"] ;
138 -> 139 ;
140 [label=<gini = 0.0<br/>samples = 1<br/>value = [0, 0, 1, 0, 0, 0, 0]<br/>class = 5>, fillcolor="#39e54dff"] ;
139 -> 140 ;
141 [label=<gini = 0.0<br/>samples = 9<br/>value = [0, 0, 0, 9, 0, 0, 0]<br/>class = 6>, fillcolor="#39e5e2ff"] ;
139 -> 141 ;
142 [label=<gini = 0.0<br/>samples = 2<br/>value = [0, 0, 0, 0, 0, 2, 0]<br/>class = 8>, fillcolor="#b139e5ff"] ;
138 -> 142 ;
143 [label=<total.sulfur.dioxide &le; 140.5<br/>gini = 0.626<br/>samples = 50<br/>value = [0, 0, 7, 22, 20, 1, 0]<br/>class = 6>, fillcolor="#39e5e211"] ;
137 -> 143 ;
144 [label=<total.sulfur.dioxide &le; 128.5<br/>gini = 0.619<br/>samples = 33<br/>value = [0, 0, 5, 10, 17, 1, 0]<br/>class = 7>, fillcolor="#3956e54e"] ;
143 -> 144 ;
145 [label=<density &le; 0.994<br/>gini = 0.674<br/>samples = 24<br/>value = [0, 0, 5, 9, 9, 1, 0]<br/>class = 6>, fillcolor="#39e5e200"] ;
144 -> 145 ;
146 [label=<citric.acid &le; 0.315<br/>gini = 0.519<br/>samples = 9<br/>value = [0, 0, 1, 1, 6, 1, 0]<br/>class = 7>, fillcolor="#3956e59f"] ;
145 -> 146 ;
147 [label=<pH &le; 3.135<br/>gini = 0.667<br/>samples = 3<br/>value = [0, 0, 1, 1, 0, 1, 0]<br/>class = 5>, fillcolor="#39e54d00"] ;
146 -> 147 ;
148 [label=<gini = 0.0<br/>samples = 1<br/>value = [0, 0, 0, 1, 0, 0, 0]<br/>class = 6>, fillcolor="#39e5e2ff"] ;
147 -> 148 ;
149 [label=<total.sulfur.dioxide &le; 107.5<br/>gini = 0.5<br/>samples = 2<br/>value = [0, 0, 1, 0, 0, 1, 0]<br/>class = 5>, fillcolor="#39e54d00"] ;
147 -> 149 ;
150 [label=<gini = 0.0<br/>samples = 1<br/>value = [0, 0, 0, 0, 0, 1, 0]<br/>class = 8>, fillcolor="#b139e5ff"] ;
149 -> 150 ;
151 [label=<gini = 0.0<br/>samples = 1<br/>value = [0, 0, 1, 0, 0, 0, 0]<br/>class = 5>, fillcolor="#39e54dff"] ;
149 -> 151 ;
152 [label=<gini = 0.0<br/>samples = 6<br/>value = [0, 0, 0, 0, 6, 0, 0]<br/>class = 7>, fillcolor="#3956e5ff"] ;
146 -> 152 ;
153 [label=<total.sulfur.dioxide &le; 108.5<br/>gini = 0.604<br/>samples = 15<br/>value = [0, 0, 4, 8, 3, 0, 0]<br/>class = 6>, fillcolor="#39e5e25d"] ;
145 -> 153 ;
154 [label=<fixed.acidity &le; 5.95<br/>gini = 0.375<br/>samples = 4<br/>value = [0, 0, 0, 1, 3, 0, 0]<br/>class = 7>, fillcolor="#3956e5aa"] ;
153 -> 154 ;
155 [label=<gini = 0.0<br/>samples = 1<br/>value = [0, 0, 0, 1, 0, 0, 0]<br/>class = 6>, fillcolor="#39e5e2ff"] ;
154 -> 155 ;
156 [label=<gini = 0.0<br/>samples = 3<br/>value = [0, 0, 0, 0, 3, 0, 0]<br/>class = 7>, fillcolor="#3956e5ff"] ;
154 -> 156 ;
157 [label=<free.sulfur.dioxide &le; 28.5<br/>gini = 0.463<br/>samples = 11<br/>value = [0, 0, 4, 7, 0, 0, 0]<br/>class = 6>, fillcolor="#39e5e26d"] ;
153 -> 157 ;
158 [label=<gini = 0.0<br/>samples = 3<br/>value = [0, 0, 3, 0, 0, 0, 0]<br/>class = 5>, fillcolor="#39e54dff"] ;
157 -> 158 ;
159 [label=<sulphates &le; 0.415<br/>gini = 0.219<br/>samples = 8<br/>value = [0, 0, 1, 7, 0, 0, 0]<br/>class = 6>, fillcolor="#39e5e2db"] ;
157 -> 159 ;
160 [label=<fixed.acidity &le; 6.3<br/>gini = 0.5<br/>samples = 2<br/>value = [0, 0, 1, 1, 0, 0, 0]<br/>class = 5>, fillcolor="#39e54d00"] ;
159 -> 160 ;
161 [label=<gini = 0.0<br/>samples = 1<br/>value = [0, 0, 0, 1, 0, 0, 0]<br/>class = 6>, fillcolor="#39e5e2ff"] ;
160 -> 161 ;
162 [label=<gini = 0.0<br/>samples = 1<br/>value = [0, 0, 1, 0, 0, 0, 0]<br/>class = 5>, fillcolor="#39e54dff"] ;
160 -> 162 ;
163 [label=<gini = 0.0<br/>samples = 6<br/>value = [0, 0, 0, 6, 0, 0, 0]<br/>class = 6>, fillcolor="#39e5e2ff"] ;
159 -> 163 ;
164 [label=<residual.sugar &le; 4.6<br/>gini = 0.198<br/>samples = 9<br/>value = [0, 0, 0, 1, 8, 0, 0]<br/>class = 7>, fillcolor="#3956e5df"] ;
144 -> 164 ;
165 [label=<gini = 0.0<br/>samples = 1<br/>value = [0, 0, 0, 1, 0, 0, 0]<br/>class = 6>, fillcolor="#39e5e2ff"] ;
164 -> 165 ;
166 [label=<gini = 0.0<br/>samples = 8<br/>value = [0, 0, 0, 0, 8, 0, 0]<br/>class = 7>, fillcolor="#3956e5ff"] ;
164 -> 166 ;
167 [label=<citric.acid &le; 0.285<br/>gini = 0.457<br/>samples = 17<br/>value = [0, 0, 2, 12, 3, 0, 0]<br/>class = 6>, fillcolor="#39e5e2a4"] ;
143 -> 167 ;
168 [label=<alcohol &le; 10.4<br/>gini = 0.625<br/>samples = 4<br/>value = [0, 0, 1, 1, 2, 0, 0]<br/>class = 7>, fillcolor="#3956e555"] ;
167 -> 168 ;
169 [label=<free.sulfur.dioxide &le; 79.5<br/>gini = 0.5<br/>samples = 2<br/>value = [0, 0, 1, 1, 0, 0, 0]<br/>class = 5>, fillcolor="#39e54d00"] ;
168 -> 169 ;
170 [label=<gini = 0.0<br/>samples = 1<br/>value = [0, 0, 1, 0, 0, 0, 0]<br/>class = 5>, fillcolor="#39e54dff"] ;
169 -> 170 ;
171 [label=<gini = 0.0<br/>samples = 1<br/>value = [0, 0, 0, 1, 0, 0, 0]<br/>class = 6>, fillcolor="#39e5e2ff"] ;
169 -> 171 ;
172 [label=<gini = 0.0<br/>samples = 2<br/>value = [0, 0, 0, 0, 2, 0, 0]<br/>class = 7>, fillcolor="#3956e5ff"] ;
168 -> 172 ;
173 [label=<citric.acid &le; 0.66<br/>gini = 0.272<br/>samples = 13<br/>value = [0, 0, 1, 11, 1, 0, 0]<br/>class = 6>, fillcolor="#39e5e2d4"] ;
167 -> 173 ;
174 [label=<fixed.acidity &le; 6.75<br/>gini = 0.153<br/>samples = 12<br/>value = [0, 0, 0, 11, 1, 0, 0]<br/>class = 6>, fillcolor="#39e5e2e8"] ;
173 -> 174 ;
175 [label=<pH &le; 3.12<br/>gini = 0.444<br/>samples = 3<br/>value = [0, 0, 0, 2, 1, 0, 0]<br/>class = 6>, fillcolor="#39e5e27f"] ;
174 -> 175 ;
176 [label=<gini = 0.0<br/>samples = 1<br/>value = [0, 0, 0, 0, 1, 0, 0]<br/>class = 7>, fillcolor="#3956e5ff"] ;
175 -> 176 ;
177 [label=<gini = 0.0<br/>samples = 2<br/>value = [0, 0, 0, 2, 0, 0, 0]<br/>class = 6>, fillcolor="#39e5e2ff"] ;
175 -> 177 ;
178 [label=<gini = 0.0<br/>samples = 9<br/>value = [0, 0, 0, 9, 0, 0, 0]<br/>class = 6>, fillcolor="#39e5e2ff"] ;
174 -> 178 ;
179 [label=<gini = 0.0<br/>samples = 1<br/>value = [0, 0, 1, 0, 0, 0, 0]<br/>class = 5>, fillcolor="#39e54dff"] ;
173 -> 179 ;
180 [label=<free.sulfur.dioxide &le; 36.5<br/>gini = 0.47<br/>samples = 206<br/>value = [0, 2, 35, 144, 23, 2, 0]<br/>class = 6>, fillcolor="#39e5e2a3"] ;
136 -> 180 ;
181 [label=<chlorides &le; 0.055<br/>gini = 0.31<br/>samples = 96<br/>value = [0, 1, 10, 79, 4, 2, 0]<br/>class = 6>, fillcolor="#39e5e2cd"] ;
180 -> 181 ;
182 [label=<density &le; 0.999<br/>gini = 0.22<br/>samples = 75<br/>value = [0, 1, 4, 66, 4, 0, 0]<br/>class = 6>, fillcolor="#39e5e2df"] ;
181 -> 182 ;
183 [label=<fixed.acidity &le; 5.3<br/>gini = 0.2<br/>samples = 74<br/>value = [0, 1, 3, 66, 4, 0, 0]<br/>class = 6>, fillcolor="#39e5e2e2"] ;
182 -> 183 ;
184 [label=<gini = 0.0<br/>samples = 1<br/>value = [0, 0, 0, 0, 1, 0, 0]<br/>class = 7>, fillcolor="#3956e5ff"] ;
183 -> 184 ;
185 [label=<density &le; 0.995<br/>gini = 0.179<br/>samples = 73<br/>value = [0, 1, 3, 66, 3, 0, 0]<br/>class = 6>, fillcolor="#39e5e2e5"] ;
183 -> 185 ;
186 [label=<residual.sugar &le; 8.35<br/>gini = 0.336<br/>samples = 36<br/>value = [0, 1, 3, 29, 3, 0, 0]<br/>class = 6>, fillcolor="#39e5e2c9"] ;
185 -> 186 ;
187 [label=<alcohol &le; 9.45<br/>gini = 0.22<br/>samples = 33<br/>value = [0, 0, 2, 29, 2, 0, 0]<br/>class = 6>, fillcolor="#39e5e2de"] ;
186 -> 187 ;
188 [label=<sulphates &le; 0.395<br/>gini = 0.5<br/>samples = 4<br/>value = [0, 0, 2, 2, 0, 0, 0]<br/>class = 5>, fillcolor="#39e54d00"] ;
187 -> 188 ;
189 [label=<gini = 0.0<br/>samples = 2<br/>value = [0, 0, 2, 0, 0, 0, 0]<br/>class = 5>, fillcolor="#39e54dff"] ;
188 -> 189 ;
190 [label=<gini = 0.0<br/>samples = 2<br/>value = [0, 0, 0, 2, 0, 0, 0]<br/>class = 6>, fillcolor="#39e5e2ff"] ;
188 -> 190 ;
191 [label=<volatile.acidity &le; 0.135<br/>gini = 0.128<br/>samples = 29<br/>value = [0, 0, 0, 27, 2, 0, 0]<br/>class = 6>, fillcolor="#39e5e2ec"] ;
187 -> 191 ;
192 [label=<chlorides &le; 0.047<br/>gini = 0.48<br/>samples = 5<br/>value = [0, 0, 0, 3, 2, 0, 0]<br/>class = 6>, fillcolor="#39e5e255"] ;
191 -> 192 ;
193 [label=<gini = 0.0<br/>samples = 2<br/>value = [0, 0, 0, 0, 2, 0, 0]<br/>class = 7>, fillcolor="#3956e5ff"] ;
192 -> 193 ;
194 [label=<gini = 0.0<br/>samples = 3<br/>value = [0, 0, 0, 3, 0, 0, 0]<br/>class = 6>, fillcolor="#39e5e2ff"] ;
192 -> 194 ;
195 [label=<gini = 0.0<br/>samples = 24<br/>value = [0, 0, 0, 24, 0, 0, 0]<br/>class = 6>, fillcolor="#39e5e2ff"] ;
191 -> 195 ;
196 [label=<density &le; 0.995<br/>gini = 0.667<br/>samples = 3<br/>value = [0, 1, 1, 0, 1, 0, 0]<br/>class = 4>, fillcolor="#b7e53900"] ;
186 -> 196 ;
197 [label=<gini = 0.0<br/>samples = 1<br/>value = [0, 1, 0, 0, 0, 0, 0]<br/>class = 4>, fillcolor="#b7e539ff"] ;
196 -> 197 ;
198 [label=<citric.acid &le; 0.26<br/>gini = 0.5<br/>samples = 2<br/>value = [0, 0, 1, 0, 1, 0, 0]<br/>class = 5>, fillcolor="#39e54d00"] ;
196 -> 198 ;
199 [label=<gini = 0.0<br/>samples = 1<br/>value = [0, 0, 1, 0, 0, 0, 0]<br/>class = 5>, fillcolor="#39e54dff"] ;
198 -> 199 ;
200 [label=<gini = 0.0<br/>samples = 1<br/>value = [0, 0, 0, 0, 1, 0, 0]<br/>class = 7>, fillcolor="#3956e5ff"] ;
198 -> 200 ;
201 [label=<gini = 0.0<br/>samples = 37<br/>value = [0, 0, 0, 37, 0, 0, 0]<br/>class = 6>, fillcolor="#39e5e2ff"] ;
185 -> 201 ;
202 [label=<gini = 0.0<br/>samples = 1<br/>value = [0, 0, 1, 0, 0, 0, 0]<br/>class = 5>, fillcolor="#39e54dff"] ;
182 -> 202 ;
203 [label=<pH &le; 3.275<br/>gini = 0.526<br/>samples = 21<br/>value = [0, 0, 6, 13, 0, 2, 0]<br/>class = 6>, fillcolor="#39e5e277"] ;
181 -> 203 ;
204 [label=<alcohol &le; 10.3<br/>gini = 0.357<br/>samples = 14<br/>value = [0, 0, 1, 11, 0, 2, 0]<br/>class = 6>, fillcolor="#39e5e2bf"] ;
203 -> 204 ;
205 [label=<alcohol &le; 9.35<br/>gini = 0.153<br/>samples = 12<br/>value = [0, 0, 1, 11, 0, 0, 0]<br/>class = 6>, fillcolor="#39e5e2e8"] ;
204 -> 205 ;
206 [label=<gini = 0.0<br/>samples = 1<br/>value = [0, 0, 1, 0, 0, 0, 0]<br/>class = 5>, fillcolor="#39e54dff"] ;
205 -> 206 ;
207 [label=<gini = 0.0<br/>samples = 11<br/>value = [0, 0, 0, 11, 0, 0, 0]<br/>class = 6>, fillcolor="#39e5e2ff"] ;
205 -> 207 ;
208 [label=<gini = 0.0<br/>samples = 2<br/>value = [0, 0, 0, 0, 0, 2, 0]<br/>class = 8>, fillcolor="#b139e5ff"] ;
204 -> 208 ;
209 [label=<sulphates &le; 0.405<br/>gini = 0.408<br/>samples = 7<br/>value = [0, 0, 5, 2, 0, 0, 0]<br/>class = 5>, fillcolor="#39e54d99"] ;
203 -> 209 ;
210 [label=<fixed.acidity &le; 7.3<br/>gini = 0.444<br/>samples = 3<br/>value = [0, 0, 1, 2, 0, 0, 0]<br/>class = 6>, fillcolor="#39e5e27f"] ;
209 -> 210 ;
211 [label=<gini = 0.0<br/>samples = 2<br/>value = [0, 0, 0, 2, 0, 0, 0]<br/>class = 6>, fillcolor="#39e5e2ff"] ;
210 -> 211 ;
212 [label=<gini = 0.0<br/>samples = 1<br/>value = [0, 0, 1, 0, 0, 0, 0]<br/>class = 5>, fillcolor="#39e54dff"] ;
210 -> 212 ;
213 [label=<gini = 0.0<br/>samples = 4<br/>value = [0, 0, 4, 0, 0, 0, 0]<br/>class = 5>, fillcolor="#39e54dff"] ;
209 -> 213 ;
214 [label=<pH &le; 2.945<br/>gini = 0.569<br/>samples = 110<br/>value = [0, 1, 25, 65, 19, 0, 0]<br/>class = 6>, fillcolor="#39e5e278"] ;
180 -> 214 ;
215 [label=<fixed.acidity &le; 6.45<br/>gini = 0.32<br/>samples = 5<br/>value = [0, 1, 0, 0, 4, 0, 0]<br/>class = 7>, fillcolor="#3956e5bf"] ;
214 -> 215 ;
216 [label=<gini = 0.0<br/>samples = 1<br/>value = [0, 1, 0, 0, 0, 0, 0]<br/>class = 4>, fillcolor="#b7e539ff"] ;
215 -> 216 ;
217 [label=<gini = 0.0<br/>samples = 4<br/>value = [0, 0, 0, 0, 4, 0, 0]<br/>class = 7>, fillcolor="#3956e5ff"] ;
215 -> 217 ;
218 [label=<total.sulfur.dioxide &le; 205.0<br/>gini = 0.54<br/>samples = 105<br/>value = [0, 0, 25, 65, 15, 0, 0]<br/>class = 6>, fillcolor="#39e5e280"] ;
214 -> 218 ;
219 [label=<total.sulfur.dioxide &le; 168.5<br/>gini = 0.487<br/>samples = 92<br/>value = [0, 0, 20, 62, 10, 0, 0]<br/>class = 6>, fillcolor="#39e5e295"] ;
218 -> 219 ;
220 [label=<residual.sugar &le; 5.75<br/>gini = 0.589<br/>samples = 61<br/>value = [0, 0, 19, 33, 9, 0, 0]<br/>class = 6>, fillcolor="#39e5e255"] ;
219 -> 220 ;
221 [label=<volatile.acidity &le; 0.125<br/>gini = 0.604<br/>samples = 13<br/>value = [0, 0, 7, 3, 3, 0, 0]<br/>class = 5>, fillcolor="#39e54d66"] ;
220 -> 221 ;
222 [label=<gini = 0.0<br/>samples = 2<br/>value = [0, 0, 0, 0, 2, 0, 0]<br/>class = 7>, fillcolor="#3956e5ff"] ;
221 -> 222 ;
223 [label=<density &le; 0.994<br/>gini = 0.512<br/>samples = 11<br/>value = [0, 0, 7, 3, 1, 0, 0]<br/>class = 5>, fillcolor="#39e54d80"] ;
221 -> 223 ;
224 [label=<gini = 0.0<br/>samples = 2<br/>value = [0, 0, 0, 2, 0, 0, 0]<br/>class = 6>, fillcolor="#39e5e2ff"] ;
223 -> 224 ;
225 [label=<total.sulfur.dioxide &le; 162.0<br/>gini = 0.37<br/>samples = 9<br/>value = [0, 0, 7, 1, 1, 0, 0]<br/>class = 5>, fillcolor="#39e54dbf"] ;
223 -> 225 ;
226 [label=<volatile.acidity &le; 0.145<br/>gini = 0.219<br/>samples = 8<br/>value = [0, 0, 7, 1, 0, 0, 0]<br/>class = 5>, fillcolor="#39e54ddb"] ;
225 -> 226 ;
227 [label=<gini = 0.0<br/>samples = 1<br/>value = [0, 0, 0, 1, 0, 0, 0]<br/>class = 6>, fillcolor="#39e5e2ff"] ;
226 -> 227 ;
228 [label=<gini = 0.0<br/>samples = 7<br/>value = [0, 0, 7, 0, 0, 0, 0]<br/>class = 5>, fillcolor="#39e54dff"] ;
226 -> 228 ;
229 [label=<gini = 0.0<br/>samples = 1<br/>value = [0, 0, 0, 0, 1, 0, 0]<br/>class = 7>, fillcolor="#3956e5ff"] ;
225 -> 229 ;
230 [label=<free.sulfur.dioxide &le; 54.5<br/>gini = 0.531<br/>samples = 48<br/>value = [0, 0, 12, 30, 6, 0, 0]<br/>class = 6>, fillcolor="#39e5e280"] ;
220 -> 230 ;
231 [label=<density &le; 0.994<br/>gini = 0.424<br/>samples = 34<br/>value = [0, 0, 5, 25, 4, 0, 0]<br/>class = 6>, fillcolor="#39e5e2b0"] ;
230 -> 231 ;
232 [label=<gini = 0.0<br/>samples = 2<br/>value = [0, 0, 0, 0, 2, 0, 0]<br/>class = 7>, fillcolor="#3956e5ff"] ;
231 -> 232 ;
233 [label=<density &le; 0.999<br/>gini = 0.361<br/>samples = 32<br/>value = [0, 0, 5, 25, 2, 0, 0]<br/>class = 6>, fillcolor="#39e5e2bd"] ;
231 -> 233 ;
234 [label=<citric.acid &le; 0.615<br/>gini = 0.245<br/>samples = 29<br/>value = [0, 0, 3, 25, 1, 0, 0]<br/>class = 6>, fillcolor="#39e5e2d8"] ;
233 -> 234 ;
235 [label=<sulphates &le; 0.345<br/>gini = 0.196<br/>samples = 28<br/>value = [0, 0, 2, 25, 1, 0, 0]<br/>class = 6>, fillcolor="#39e5e2e2"] ;
234 -> 235 ;
236 [label=<gini = 0.0<br/>samples = 1<br/>value = [0, 0, 1, 0, 0, 0, 0]<br/>class = 5>, fillcolor="#39e54dff"] ;
235 -> 236 ;
237 [label=<gini = 0.14<br/>samples = 27<br/>value = [0, 0, 1, 25, 1, 0, 0]<br/>class = 6>, fillcolor="#39e5e2eb"] ;
235 -> 237 ;
238 [label=<gini = 0.0<br/>samples = 1<br/>value = [0, 0, 1, 0, 0, 0, 0]<br/>class = 5>, fillcolor="#39e54dff"] ;
234 -> 238 ;
239 [label=<sulphates &le; 0.57<br/>gini = 0.444<br/>samples = 3<br/>value = [0, 0, 2, 0, 1, 0, 0]<br/>class = 5>, fillcolor="#39e54d7f"] ;
233 -> 239 ;
240 [label=<gini = 0.0<br/>samples = 1<br/>value = [0, 0, 0, 0, 1, 0, 0]<br/>class = 7>, fillcolor="#3956e5ff"] ;
239 -> 240 ;
241 [label=<gini = 0.0<br/>samples = 2<br/>value = [0, 0, 2, 0, 0, 0, 0]<br/>class = 5>, fillcolor="#39e54dff"] ;
239 -> 241 ;
242 [label=<fixed.acidity &le; 7.25<br/>gini = 0.602<br/>samples = 14<br/>value = [0, 0, 7, 5, 2, 0, 0]<br/>class = 5>, fillcolor="#39e54d39"] ;
230 -> 242 ;
243 [label=<chlorides &le; 0.05<br/>gini = 0.494<br/>samples = 9<br/>value = [0, 0, 6, 1, 2, 0, 0]<br/>class = 5>, fillcolor="#39e54d92"] ;
242 -> 243 ;
244 [label=<gini = 0.0<br/>samples = 5<br/>value = [0, 0, 5, 0, 0, 0, 0]<br/>class = 5>, fillcolor="#39e54dff"] ;
243 -> 244 ;
245 [label=<alcohol &le; 9.55<br/>gini = 0.625<br/>samples = 4<br/>value = [0, 0, 1, 1, 2, 0, 0]<br/>class = 7>, fillcolor="#3956e555"] ;
243 -> 245 ;
246 [label=<chlorides &le; 0.055<br/>gini = 0.5<br/>samples = 2<br/>value = [0, 0, 1, 1, 0, 0, 0]<br/>class = 5>, fillcolor="#39e54d00"] ;
245 -> 246 ;
247 [label=<gini = 0.0<br/>samples = 1<br/>value = [0, 0, 1, 0, 0, 0, 0]<br/>class = 5>, fillcolor="#39e54dff"] ;
246 -> 247 ;
248 [label=<gini = 0.0<br/>samples = 1<br/>value = [0, 0, 0, 1, 0, 0, 0]<br/>class = 6>, fillcolor="#39e5e2ff"] ;
246 -> 248 ;
249 [label=<gini = 0.0<br/>samples = 2<br/>value = [0, 0, 0, 0, 2, 0, 0]<br/>class = 7>, fillcolor="#3956e5ff"] ;
245 -> 249 ;
250 [label=<free.sulfur.dioxide &le; 57.0<br/>gini = 0.32<br/>samples = 5<br/>value = [0, 0, 1, 4, 0, 0, 0]<br/>class = 6>, fillcolor="#39e5e2bf"] ;
242 -> 250 ;
251 [label=<gini = 0.0<br/>samples = 1<br/>value = [0, 0, 1, 0, 0, 0, 0]<br/>class = 5>, fillcolor="#39e54dff"] ;
250 -> 251 ;
252 [label=<gini = 0.0<br/>samples = 4<br/>value = [0, 0, 0, 4, 0, 0, 0]<br/>class = 6>, fillcolor="#39e5e2ff"] ;
250 -> 252 ;
253 [label=<pH &le; 3.005<br/>gini = 0.123<br/>samples = 31<br/>value = [0, 0, 1, 29, 1, 0, 0]<br/>class = 6>, fillcolor="#39e5e2ee"] ;
219 -> 253 ;
254 [label=<gini = 0.0<br/>samples = 1<br/>value = [0, 0, 0, 0, 1, 0, 0]<br/>class = 7>, fillcolor="#3956e5ff"] ;
253 -> 254 ;
255 [label=<residual.sugar &le; 16.775<br/>gini = 0.064<br/>samples = 30<br/>value = [0, 0, 1, 29, 0, 0, 0]<br/>class = 6>, fillcolor="#39e5e2f6"] ;
253 -> 255 ;
256 [label=<gini = 0.0<br/>samples = 26<br/>value = [0, 0, 0, 26, 0, 0, 0]<br/>class = 6>, fillcolor="#39e5e2ff"] ;
255 -> 256 ;
257 [label=<density &le; 0.999<br/>gini = 0.375<br/>samples = 4<br/>value = [0, 0, 1, 3, 0, 0, 0]<br/>class = 6>, fillcolor="#39e5e2aa"] ;
255 -> 257 ;
258 [label=<gini = 0.0<br/>samples = 1<br/>value = [0, 0, 1, 0, 0, 0, 0]<br/>class = 5>, fillcolor="#39e54dff"] ;
257 -> 258 ;
259 [label=<gini = 0.0<br/>samples = 3<br/>value = [0, 0, 0, 3, 0, 0, 0]<br/>class = 6>, fillcolor="#39e5e2ff"] ;
257 -> 259 ;
260 [label=<residual.sugar &le; 10.25<br/>gini = 0.651<br/>samples = 13<br/>value = [0, 0, 5, 3, 5, 0, 0]<br/>class = 5>, fillcolor="#39e54d00"] ;
218 -> 260 ;
261 [label=<pH &le; 3.255<br/>gini = 0.469<br/>samples = 8<br/>value = [0, 0, 5, 3, 0, 0, 0]<br/>class = 5>, fillcolor="#39e54d66"] ;
260 -> 261 ;
262 [label=<gini = 0.0<br/>samples = 2<br/>value = [0, 0, 0, 2, 0, 0, 0]<br/>class = 6>, fillcolor="#39e5e2ff"] ;
261 -> 262 ;
263 [label=<fixed.acidity &le; 7.3<br/>gini = 0.278<br/>samples = 6<br/>value = [0, 0, 5, 1, 0, 0, 0]<br/>class = 5>, fillcolor="#39e54dcc"] ;
261 -> 263 ;
264 [label=<gini = 0.0<br/>samples = 5<br/>value = [0, 0, 5, 0, 0, 0, 0]<br/>class = 5>, fillcolor="#39e54dff"] ;
263 -> 264 ;
265 [label=<gini = 0.0<br/>samples = 1<br/>value = [0, 0, 0, 1, 0, 0, 0]<br/>class = 6>, fillcolor="#39e5e2ff"] ;
263 -> 265 ;
266 [label=<gini = 0.0<br/>samples = 5<br/>value = [0, 0, 0, 0, 5, 0, 0]<br/>class = 7>, fillcolor="#3956e5ff"] ;
260 -> 266 ;
267 [label=<chlorides &le; 0.055<br/>gini = 0.245<br/>samples = 7<br/>value = [0, 0, 1, 0, 6, 0, 0]<br/>class = 7>, fillcolor="#3956e5d4"] ;
25 -> 267 ;
268 [label=<gini = 0.0<br/>samples = 6<br/>value = [0, 0, 0, 0, 6, 0, 0]<br/>class = 7>, fillcolor="#3956e5ff"] ;
267 -> 268 ;
269 [label=<gini = 0.0<br/>samples = 1<br/>value = [0, 0, 1, 0, 0, 0, 0]<br/>class = 5>, fillcolor="#39e54dff"] ;
267 -> 269 ;
270 [label=<sulphates &le; 0.415<br/>gini = 0.602<br/>samples = 524<br/>value = [3, 11, 186, 268, 53, 3, 0]<br/>class = 6>, fillcolor="#39e5e23e"] ;
2 -> 270 ;
271 [label=<chlorides &le; 0.062<br/>gini = 0.53<br/>samples = 114<br/>value = [0, 0, 65, 43, 6, 0, 0]<br/>class = 5>, fillcolor="#39e54d4f"] ;
270 -> 271 ;
272 [label=<alcohol &le; 9.55<br/>gini = 0.502<br/>samples = 101<br/>value = [0, 0, 63, 33, 5, 0, 0]<br/>class = 5>, fillcolor="#39e54d71"] ;
271 -> 272 ;
273 [label=<total.sulfur.dioxide &le; 116.5<br/>gini = 0.359<br/>samples = 41<br/>value = [0, 0, 32, 7, 2, 0, 0]<br/>class = 5>, fillcolor="#39e54dbc"] ;
272 -> 273 ;
274 [label=<free.sulfur.dioxide &le; 29.5<br/>gini = 0.375<br/>samples = 4<br/>value = [0, 0, 1, 3, 0, 0, 0]<br/>class = 6>, fillcolor="#39e5e2aa"] ;
273 -> 274 ;
275 [label=<gini = 0.0<br/>samples = 3<br/>value = [0, 0, 0, 3, 0, 0, 0]<br/>class = 6>, fillcolor="#39e5e2ff"] ;
274 -> 275 ;
276 [label=<gini = 0.0<br/>samples = 1<br/>value = [0, 0, 1, 0, 0, 0, 0]<br/>class = 5>, fillcolor="#39e54dff"] ;
274 -> 276 ;
277 [label=<volatile.acidity &le; 0.225<br/>gini = 0.283<br/>samples = 37<br/>value = [0, 0, 31, 4, 2, 0, 0]<br/>class = 5>, fillcolor="#39e54dd1"] ;
273 -> 277 ;
278 [label=<free.sulfur.dioxide &le; 63.0<br/>gini = 0.5<br/>samples = 14<br/>value = [0, 0, 9, 4, 1, 0, 0]<br/>class = 5>, fillcolor="#39e54d80"] ;
277 -> 278 ;
279 [label=<residual.sugar &le; 17.625<br/>gini = 0.403<br/>samples = 12<br/>value = [0, 0, 9, 2, 1, 0, 0]<br/>class = 5>, fillcolor="#39e54db2"] ;
278 -> 279 ;
280 [label=<total.sulfur.dioxide &le; 131.25<br/>gini = 0.198<br/>samples = 9<br/>value = [0, 0, 8, 0, 1, 0, 0]<br/>class = 5>, fillcolor="#39e54ddf"] ;
279 -> 280 ;
281 [label=<gini = 0.0<br/>samples = 1<br/>value = [0, 0, 0, 0, 1, 0, 0]<br/>class = 7>, fillcolor="#3956e5ff"] ;
280 -> 281 ;
282 [label=<gini = 0.0<br/>samples = 8<br/>value = [0, 0, 8, 0, 0, 0, 0]<br/>class = 5>, fillcolor="#39e54dff"] ;
280 -> 282 ;
283 [label=<citric.acid &le; 0.38<br/>gini = 0.444<br/>samples = 3<br/>value = [0, 0, 1, 2, 0, 0, 0]<br/>class = 6>, fillcolor="#39e5e27f"] ;
279 -> 283 ;
284 [label=<gini = 0.0<br/>samples = 1<br/>value = [0, 0, 1, 0, 0, 0, 0]<br/>class = 5>, fillcolor="#39e54dff"] ;
283 -> 284 ;
285 [label=<gini = 0.0<br/>samples = 2<br/>value = [0, 0, 0, 2, 0, 0, 0]<br/>class = 6>, fillcolor="#39e5e2ff"] ;
283 -> 285 ;
286 [label=<gini = 0.0<br/>samples = 2<br/>value = [0, 0, 0, 2, 0, 0, 0]<br/>class = 6>, fillcolor="#39e5e2ff"] ;
278 -> 286 ;
287 [label=<free.sulfur.dioxide &le; 54.0<br/>gini = 0.083<br/>samples = 23<br/>value = [0, 0, 22, 0, 1, 0, 0]<br/>class = 5>, fillcolor="#39e54df3"] ;
277 -> 287 ;
288 [label=<gini = 0.0<br/>samples = 18<br/>value = [0, 0, 18, 0, 0, 0, 0]<br/>class = 5>, fillcolor="#39e54dff"] ;
287 -> 288 ;
289 [label=<residual.sugar &le; 13.65<br/>gini = 0.32<br/>samples = 5<br/>value = [0, 0, 4, 0, 1, 0, 0]<br/>class = 5>, fillcolor="#39e54dbf"] ;
287 -> 289 ;
290 [label=<gini = 0.0<br/>samples = 4<br/>value = [0, 0, 4, 0, 0, 0, 0]<br/>class = 5>, fillcolor="#39e54dff"] ;
289 -> 290 ;
291 [label=<gini = 0.0<br/>samples = 1<br/>value = [0, 0, 0, 0, 1, 0, 0]<br/>class = 7>, fillcolor="#3956e5ff"] ;
289 -> 291 ;
292 [label=<citric.acid &le; 0.375<br/>gini = 0.543<br/>samples = 60<br/>value = [0, 0, 31, 26, 3, 0, 0]<br/>class = 5>, fillcolor="#39e54d26"] ;
272 -> 292 ;
293 [label=<alcohol &le; 9.75<br/>gini = 0.53<br/>samples = 54<br/>value = [0, 0, 31, 20, 3, 0, 0]<br/>class = 5>, fillcolor="#39e54d52"] ;
292 -> 293 ;
294 [label=<sulphates &le; 0.335<br/>gini = 0.375<br/>samples = 8<br/>value = [0, 0, 2, 6, 0, 0, 0]<br/>class = 6>, fillcolor="#39e5e2aa"] ;
293 -> 294 ;
295 [label=<gini = 0.0<br/>samples = 1<br/>value = [0, 0, 1, 0, 0, 0, 0]<br/>class = 5>, fillcolor="#39e54dff"] ;
294 -> 295 ;
296 [label=<pH &le; 3.4<br/>gini = 0.245<br/>samples = 7<br/>value = [0, 0, 1, 6, 0, 0, 0]<br/>class = 6>, fillcolor="#39e5e2d4"] ;
294 -> 296 ;
297 [label=<gini = 0.0<br/>samples = 6<br/>value = [0, 0, 0, 6, 0, 0, 0]<br/>class = 6>, fillcolor="#39e5e2ff"] ;
296 -> 297 ;
298 [label=<gini = 0.0<br/>samples = 1<br/>value = [0, 0, 1, 0, 0, 0, 0]<br/>class = 5>, fillcolor="#39e54dff"] ;
296 -> 298 ;
299 [label=<sulphates &le; 0.335<br/>gini = 0.506<br/>samples = 46<br/>value = [0, 0, 29, 14, 3, 0, 0]<br/>class = 5>, fillcolor="#39e54d78"] ;
293 -> 299 ;
300 [label=<pH &le; 3.345<br/>gini = 0.62<br/>samples = 10<br/>value = [0, 0, 3, 5, 2, 0, 0]<br/>class = 6>, fillcolor="#39e5e249"] ;
299 -> 300 ;
301 [label=<citric.acid &le; 0.31<br/>gini = 0.469<br/>samples = 8<br/>value = [0, 0, 3, 5, 0, 0, 0]<br/>class = 6>, fillcolor="#39e5e266"] ;
300 -> 301 ;
302 [label=<citric.acid &le; 0.25<br/>gini = 0.278<br/>samples = 6<br/>value = [0, 0, 1, 5, 0, 0, 0]<br/>class = 6>, fillcolor="#39e5e2cc"] ;
301 -> 302 ;
303 [label=<gini = 0.0<br/>samples = 1<br/>value = [0, 0, 1, 0, 0, 0, 0]<br/>class = 5>, fillcolor="#39e54dff"] ;
302 -> 303 ;
304 [label=<gini = 0.0<br/>samples = 5<br/>value = [0, 0, 0, 5, 0, 0, 0]<br/>class = 6>, fillcolor="#39e5e2ff"] ;
302 -> 304 ;
305 [label=<gini = 0.0<br/>samples = 2<br/>value = [0, 0, 2, 0, 0, 0, 0]<br/>class = 5>, fillcolor="#39e54dff"] ;
301 -> 305 ;
306 [label=<gini = 0.0<br/>samples = 2<br/>value = [0, 0, 0, 0, 2, 0, 0]<br/>class = 7>, fillcolor="#3956e5ff"] ;
300 -> 306 ;
307 [label=<residual.sugar &le; 1.7<br/>gini = 0.415<br/>samples = 36<br/>value = [0, 0, 26, 9, 1, 0, 0]<br/>class = 5>, fillcolor="#39e54da1"] ;
299 -> 307 ;
308 [label=<gini = 0.0<br/>samples = 7<br/>value = [0, 0, 7, 0, 0, 0, 0]<br/>class = 5>, fillcolor="#39e54dff"] ;
307 -> 308 ;
309 [label=<total.sulfur.dioxide &le; 134.5<br/>gini = 0.473<br/>samples = 29<br/>value = [0, 0, 19, 9, 1, 0, 0]<br/>class = 5>, fillcolor="#39e54d7f"] ;
307 -> 309 ;
310 [label=<total.sulfur.dioxide &le; 128.0<br/>gini = 0.561<br/>samples = 14<br/>value = [0, 0, 6, 7, 1, 0, 0]<br/>class = 6>, fillcolor="#39e5e220"] ;
309 -> 310 ;
311 [label=<sulphates &le; 0.395<br/>gini = 0.54<br/>samples = 10<br/>value = [0, 0, 6, 3, 1, 0, 0]<br/>class = 5>, fillcolor="#39e54d6d"] ;
310 -> 311 ;
312 [label=<residual.sugar &le; 10.8<br/>gini = 0.278<br/>samples = 6<br/>value = [0, 0, 5, 0, 1, 0, 0]<br/>class = 5>, fillcolor="#39e54dcc"] ;
311 -> 312 ;
313 [label=<gini = 0.0<br/>samples = 5<br/>value = [0, 0, 5, 0, 0, 0, 0]<br/>class = 5>, fillcolor="#39e54dff"] ;
312 -> 313 ;
314 [label=<gini = 0.0<br/>samples = 1<br/>value = [0, 0, 0, 0, 1, 0, 0]<br/>class = 7>, fillcolor="#3956e5ff"] ;
312 -> 314 ;
315 [label=<pH &le; 3.115<br/>gini = 0.375<br/>samples = 4<br/>value = [0, 0, 1, 3, 0, 0, 0]<br/>class = 6>, fillcolor="#39e5e2aa"] ;
311 -> 315 ;
316 [label=<gini = 0.0<br/>samples = 1<br/>value = [0, 0, 1, 0, 0, 0, 0]<br/>class = 5>, fillcolor="#39e54dff"] ;
315 -> 316 ;
317 [label=<gini = 0.0<br/>samples = 3<br/>value = [0, 0, 0, 3, 0, 0, 0]<br/>class = 6>, fillcolor="#39e5e2ff"] ;
315 -> 317 ;
318 [label=<gini = 0.0<br/>samples = 4<br/>value = [0, 0, 0, 4, 0, 0, 0]<br/>class = 6>, fillcolor="#39e5e2ff"] ;
310 -> 318 ;
319 [label=<residual.sugar &le; 3.3<br/>gini = 0.231<br/>samples = 15<br/>value = [0, 0, 13, 2, 0, 0, 0]<br/>class = 5>, fillcolor="#39e54dd8"] ;
309 -> 319 ;
320 [label=<gini = 0.0<br/>samples = 1<br/>value = [0, 0, 0, 1, 0, 0, 0]<br/>class = 6>, fillcolor="#39e5e2ff"] ;
319 -> 320 ;
321 [label=<pH &le; 3.165<br/>gini = 0.133<br/>samples = 14<br/>value = [0, 0, 13, 1, 0, 0, 0]<br/>class = 5>, fillcolor="#39e54deb"] ;
319 -> 321 ;
322 [label=<residual.sugar &le; 15.375<br/>gini = 0.5<br/>samples = 2<br/>value = [0, 0, 1, 1, 0, 0, 0]<br/>class = 5>, fillcolor="#39e54d00"] ;
321 -> 322 ;
323 [label=<gini = 0.0<br/>samples = 1<br/>value = [0, 0, 0, 1, 0, 0, 0]<br/>class = 6>, fillcolor="#39e5e2ff"] ;
322 -> 323 ;
324 [label=<gini = 0.0<br/>samples = 1<br/>value = [0, 0, 1, 0, 0, 0, 0]<br/>class = 5>, fillcolor="#39e54dff"] ;
322 -> 324 ;
325 [label=<gini = 0.0<br/>samples = 12<br/>value = [0, 0, 12, 0, 0, 0, 0]<br/>class = 5>, fillcolor="#39e54dff"] ;
321 -> 325 ;
326 [label=<gini = 0.0<br/>samples = 6<br/>value = [0, 0, 0, 6, 0, 0, 0]<br/>class = 6>, fillcolor="#39e5e2ff"] ;
292 -> 326 ;
327 [label=<density &le; 0.993<br/>gini = 0.379<br/>samples = 13<br/>value = [0, 0, 2, 10, 1, 0, 0]<br/>class = 6>, fillcolor="#39e5e2b9"] ;
271 -> 327 ;
328 [label=<gini = 0.0<br/>samples = 1<br/>value = [0, 0, 0, 0, 1, 0, 0]<br/>class = 7>, fillcolor="#3956e5ff"] ;
327 -> 328 ;
329 [label=<volatile.acidity &le; 0.245<br/>gini = 0.278<br/>samples = 12<br/>value = [0, 0, 2, 10, 0, 0, 0]<br/>class = 6>, fillcolor="#39e5e2cc"] ;
327 -> 329 ;
330 [label=<sulphates &le; 0.32<br/>gini = 0.165<br/>samples = 11<br/>value = [0, 0, 1, 10, 0, 0, 0]<br/>class = 6>, fillcolor="#39e5e2e6"] ;
329 -> 330 ;
331 [label=<gini = 0.0<br/>samples = 1<br/>value = [0, 0, 1, 0, 0, 0, 0]<br/>class = 5>, fillcolor="#39e54dff"] ;
330 -> 331 ;
332 [label=<gini = 0.0<br/>samples = 10<br/>value = [0, 0, 0, 10, 0, 0, 0]<br/>class = 6>, fillcolor="#39e5e2ff"] ;
330 -> 332 ;
333 [label=<gini = 0.0<br/>samples = 1<br/>value = [0, 0, 1, 0, 0, 0, 0]<br/>class = 5>, fillcolor="#39e54dff"] ;
329 -> 333 ;
334 [label=<alcohol &le; 9.775<br/>gini = 0.598<br/>samples = 410<br/>value = [3, 11, 121, 225, 47, 3, 0]<br/>class = 6>, fillcolor="#39e5e25c"] ;
270 -> 334 ;
335 [label=<volatile.acidity &le; 0.212<br/>gini = 0.601<br/>samples = 225<br/>value = [3, 5, 89, 109, 19, 0, 0]<br/>class = 6>, fillcolor="#39e5e226"] ;
334 -> 335 ;
336 [label=<alcohol &le; 9.55<br/>gini = 0.403<br/>samples = 25<br/>value = [0, 0, 18, 7, 0, 0, 0]<br/>class = 5>, fillcolor="#39e54d9c"] ;
335 -> 336 ;
337 [label=<total.sulfur.dioxide &le; 189.0<br/>gini = 0.298<br/>samples = 22<br/>value = [0, 0, 18, 4, 0, 0, 0]<br/>class = 5>, fillcolor="#39e54dc6"] ;
336 -> 337 ;
338 [label=<density &le; 0.993<br/>gini = 0.188<br/>samples = 19<br/>value = [0, 0, 17, 2, 0, 0, 0]<br/>class = 5>, fillcolor="#39e54de1"] ;
337 -> 338 ;
339 [label=<gini = 0.0<br/>samples = 1<br/>value = [0, 0, 0, 1, 0, 0, 0]<br/>class = 6>, fillcolor="#39e5e2ff"] ;
338 -> 339 ;
340 [label=<citric.acid &le; 0.22<br/>gini = 0.105<br/>samples = 18<br/>value = [0, 0, 17, 1, 0, 0, 0]<br/>class = 5>, fillcolor="#39e54df0"] ;
338 -> 340 ;
341 [label=<gini = 0.0<br/>samples = 1<br/>value = [0, 0, 0, 1, 0, 0, 0]<br/>class = 6>, fillcolor="#39e5e2ff"] ;
340 -> 341 ;
342 [label=<gini = 0.0<br/>samples = 17<br/>value = [0, 0, 17, 0, 0, 0, 0]<br/>class = 5>, fillcolor="#39e54dff"] ;
340 -> 342 ;
343 [label=<density &le; 1.001<br/>gini = 0.444<br/>samples = 3<br/>value = [0, 0, 1, 2, 0, 0, 0]<br/>class = 6>, fillcolor="#39e5e27f"] ;
337 -> 343 ;
344 [label=<gini = 0.0<br/>samples = 2<br/>value = [0, 0, 0, 2, 0, 0, 0]<br/>class = 6>, fillcolor="#39e5e2ff"] ;
343 -> 344 ;
345 [label=<gini = 0.0<br/>samples = 1<br/>value = [0, 0, 1, 0, 0, 0, 0]<br/>class = 5>, fillcolor="#39e54dff"] ;
343 -> 345 ;
346 [label=<gini = 0.0<br/>samples = 3<br/>value = [0, 0, 0, 3, 0, 0, 0]<br/>class = 6>, fillcolor="#39e5e2ff"] ;
336 -> 346 ;
347 [label=<residual.sugar &le; 13.85<br/>gini = 0.604<br/>samples = 200<br/>value = [3, 5, 71, 102, 19, 0, 0]<br/>class = 6>, fillcolor="#39e5e23d"] ;
335 -> 347 ;
348 [label=<alcohol &le; 8.95<br/>gini = 0.605<br/>samples = 136<br/>value = [3, 4, 59, 61, 9, 0, 0]<br/>class = 6>, fillcolor="#39e5e207"] ;
347 -> 348 ;
349 [label=<free.sulfur.dioxide &le; 38.5<br/>gini = 0.491<br/>samples = 17<br/>value = [1, 0, 11, 0, 5, 0, 0]<br/>class = 5>, fillcolor="#39e54d80"] ;
348 -> 349 ;
350 [label=<citric.acid &le; 0.275<br/>gini = 0.278<br/>samples = 6<br/>value = [0, 0, 1, 0, 5, 0, 0]<br/>class = 7>, fillcolor="#3956e5cc"] ;
349 -> 350 ;
351 [label=<gini = 0.0<br/>samples = 1<br/>value = [0, 0, 1, 0, 0, 0, 0]<br/>class = 5>, fillcolor="#39e54dff"] ;
350 -> 351 ;
352 [label=<gini = 0.0<br/>samples = 5<br/>value = [0, 0, 0, 0, 5, 0, 0]<br/>class = 7>, fillcolor="#3956e5ff"] ;
350 -> 352 ;
353 [label=<volatile.acidity &le; 0.223<br/>gini = 0.165<br/>samples = 11<br/>value = [1, 0, 10, 0, 0, 0, 0]<br/>class = 5>, fillcolor="#39e54de6"] ;
349 -> 353 ;
354 [label=<gini = 0.0<br/>samples = 1<br/>value = [1, 0, 0, 0, 0, 0, 0]<br/>class = 3>, fillcolor="#e58139ff"] ;
353 -> 354 ;
355 [label=<gini = 0.0<br/>samples = 10<br/>value = [0, 0, 10, 0, 0, 0, 0]<br/>class = 5>, fillcolor="#39e54dff"] ;
353 -> 355 ;
356 [label=<pH &le; 3.07<br/>gini = 0.572<br/>samples = 119<br/>value = [2, 4, 48, 61, 4, 0, 0]<br/>class = 6>, fillcolor="#39e5e22f"] ;
348 -> 356 ;
357 [label=<free.sulfur.dioxide &le; 22.0<br/>gini = 0.48<br/>samples = 30<br/>value = [1, 3, 4, 21, 1, 0, 0]<br/>class = 6>, fillcolor="#39e5e2a7"] ;
356 -> 357 ;
358 [label=<alcohol &le; 9.6<br/>gini = 0.375<br/>samples = 4<br/>value = [1, 3, 0, 0, 0, 0, 0]<br/>class = 4>, fillcolor="#b7e539aa"] ;
357 -> 358 ;
359 [label=<gini = 0.0<br/>samples = 3<br/>value = [0, 3, 0, 0, 0, 0, 0]<br/>class = 4>, fillcolor="#b7e539ff"] ;
358 -> 359 ;
360 [label=<gini = 0.0<br/>samples = 1<br/>value = [1, 0, 0, 0, 0, 0, 0]<br/>class = 3>, fillcolor="#e58139ff"] ;
358 -> 360 ;
361 [label=<total.sulfur.dioxide &le; 191.5<br/>gini = 0.322<br/>samples = 26<br/>value = [0, 0, 4, 21, 1, 0, 0]<br/>class = 6>, fillcolor="#39e5e2c5"] ;
357 -> 361 ;
362 [label=<density &le; 0.997<br/>gini = 0.234<br/>samples = 23<br/>value = [0, 0, 2, 20, 1, 0, 0]<br/>class = 6>, fillcolor="#39e5e2db"] ;
361 -> 362 ;
363 [label=<citric.acid &le; 0.305<br/>gini = 0.494<br/>samples = 9<br/>value = [0, 0, 2, 6, 1, 0, 0]<br/>class = 6>, fillcolor="#39e5e292"] ;
362 -> 363 ;
364 [label=<gini = 0.0<br/>samples = 5<br/>value = [0, 0, 0, 5, 0, 0, 0]<br/>class = 6>, fillcolor="#39e5e2ff"] ;
363 -> 364 ;
365 [label=<chlorides &le; 0.055<br/>gini = 0.625<br/>samples = 4<br/>value = [0, 0, 2, 1, 1, 0, 0]<br/>class = 5>, fillcolor="#39e54d55"] ;
363 -> 365 ;
366 [label=<gini = 0.0<br/>samples = 2<br/>value = [0, 0, 2, 0, 0, 0, 0]<br/>class = 5>, fillcolor="#39e54dff"] ;
365 -> 366 ;
367 [label=<total.sulfur.dioxide &le; 141.0<br/>gini = 0.5<br/>samples = 2<br/>value = [0, 0, 0, 1, 1, 0, 0]<br/>class = 6>, fillcolor="#39e5e200"] ;
365 -> 367 ;
368 [label=<gini = 0.0<br/>samples = 1<br/>value = [0, 0, 0, 1, 0, 0, 0]<br/>class = 6>, fillcolor="#39e5e2ff"] ;
367 -> 368 ;
369 [label=<gini = 0.0<br/>samples = 1<br/>value = [0, 0, 0, 0, 1, 0, 0]<br/>class = 7>, fillcolor="#3956e5ff"] ;
367 -> 369 ;
370 [label=<gini = 0.0<br/>samples = 14<br/>value = [0, 0, 0, 14, 0, 0, 0]<br/>class = 6>, fillcolor="#39e5e2ff"] ;
362 -> 370 ;
371 [label=<sulphates &le; 0.43<br/>gini = 0.444<br/>samples = 3<br/>value = [0, 0, 2, 1, 0, 0, 0]<br/>class = 5>, fillcolor="#39e54d7f"] ;
361 -> 371 ;
372 [label=<gini = 0.0<br/>samples = 1<br/>value = [0, 0, 0, 1, 0, 0, 0]<br/>class = 6>, fillcolor="#39e5e2ff"] ;
371 -> 372 ;
373 [label=<gini = 0.0<br/>samples = 2<br/>value = [0, 0, 2, 0, 0, 0, 0]<br/>class = 5>, fillcolor="#39e54dff"] ;
371 -> 373 ;
374 [label=<chlorides &le; 0.05<br/>gini = 0.552<br/>samples = 89<br/>value = [1, 1, 44, 40, 3, 0, 0]<br/>class = 5>, fillcolor="#39e54d15"] ;
356 -> 374 ;
375 [label=<pH &le; 3.445<br/>gini = 0.556<br/>samples = 52<br/>value = [1, 1, 17, 30, 3, 0, 0]<br/>class = 6>, fillcolor="#39e5e25f"] ;
374 -> 375 ;
376 [label=<free.sulfur.dioxide &le; 53.5<br/>gini = 0.484<br/>samples = 48<br/>value = [0, 0, 17, 30, 1, 0, 0]<br/>class = 6>, fillcolor="#39e5e26b"] ;
375 -> 376 ;
377 [label=<citric.acid &le; 0.275<br/>gini = 0.42<br/>samples = 32<br/>value = [0, 0, 8, 23, 1, 0, 0]<br/>class = 6>, fillcolor="#39e5e29f"] ;
376 -> 377 ;
378 [label=<total.sulfur.dioxide &le; 121.5<br/>gini = 0.444<br/>samples = 6<br/>value = [0, 0, 4, 2, 0, 0, 0]<br/>class = 5>, fillcolor="#39e54d7f"] ;
377 -> 378 ;
379 [label=<gini = 0.0<br/>samples = 2<br/>value = [0, 0, 0, 2, 0, 0, 0]<br/>class = 6>, fillcolor="#39e5e2ff"] ;
378 -> 379 ;
380 [label=<gini = 0.0<br/>samples = 4<br/>value = [0, 0, 4, 0, 0, 0, 0]<br/>class = 5>, fillcolor="#39e54dff"] ;
378 -> 380 ;
381 [label=<density &le; 0.995<br/>gini = 0.322<br/>samples = 26<br/>value = [0, 0, 4, 21, 1, 0, 0]<br/>class = 6>, fillcolor="#39e5e2c5"] ;
377 -> 381 ;
382 [label=<citric.acid &le; 0.325<br/>gini = 0.444<br/>samples = 3<br/>value = [0, 0, 2, 1, 0, 0, 0]<br/>class = 5>, fillcolor="#39e54d7f"] ;
381 -> 382 ;
383 [label=<gini = 0.0<br/>samples = 1<br/>value = [0, 0, 0, 1, 0, 0, 0]<br/>class = 6>, fillcolor="#39e5e2ff"] ;
382 -> 383 ;
384 [label=<gini = 0.0<br/>samples = 2<br/>value = [0, 0, 2, 0, 0, 0, 0]<br/>class = 5>, fillcolor="#39e54dff"] ;
382 -> 384 ;
385 [label=<alcohol &le; 9.05<br/>gini = 0.234<br/>samples = 23<br/>value = [0, 0, 2, 20, 1, 0, 0]<br/>class = 6>, fillcolor="#39e5e2db"] ;
381 -> 385 ;
386 [label=<gini = 0.0<br/>samples = 1<br/>value = [0, 0, 1, 0, 0, 0, 0]<br/>class = 5>, fillcolor="#39e54dff"] ;
385 -> 386 ;
387 [label=<density &le; 0.997<br/>gini = 0.169<br/>samples = 22<br/>value = [0, 0, 1, 20, 1, 0, 0]<br/>class = 6>, fillcolor="#39e5e2e7"] ;
385 -> 387 ;
388 [label=<gini = 0.0<br/>samples = 17<br/>value = [0, 0, 0, 17, 0, 0, 0]<br/>class = 6>, fillcolor="#39e5e2ff"] ;
387 -> 388 ;
389 [label=<density &le; 0.997<br/>gini = 0.56<br/>samples = 5<br/>value = [0, 0, 1, 3, 1, 0, 0]<br/>class = 6>, fillcolor="#39e5e27f"] ;
387 -> 389 ;
390 [label=<gini = 0.5<br/>samples = 2<br/>value = [0, 0, 1, 0, 1, 0, 0]<br/>class = 5>, fillcolor="#39e54d00"] ;
389 -> 390 ;
391 [label=<gini = 0.0<br/>samples = 3<br/>value = [0, 0, 0, 3, 0, 0, 0]<br/>class = 6>, fillcolor="#39e5e2ff"] ;
389 -> 391 ;
392 [label=<fixed.acidity &le; 6.75<br/>gini = 0.492<br/>samples = 16<br/>value = [0, 0, 9, 7, 0, 0, 0]<br/>class = 5>, fillcolor="#39e54d39"] ;
376 -> 392 ;
393 [label=<pH &le; 3.235<br/>gini = 0.298<br/>samples = 11<br/>value = [0, 0, 9, 2, 0, 0, 0]<br/>class = 5>, fillcolor="#39e54dc6"] ;
392 -> 393 ;
394 [label=<gini = 0.0<br/>samples = 9<br/>value = [0, 0, 9, 0, 0, 0, 0]<br/>class = 5>, fillcolor="#39e54dff"] ;
393 -> 394 ;
395 [label=<gini = 0.0<br/>samples = 2<br/>value = [0, 0, 0, 2, 0, 0, 0]<br/>class = 6>, fillcolor="#39e5e2ff"] ;
393 -> 395 ;
396 [label=<gini = 0.0<br/>samples = 5<br/>value = [0, 0, 0, 5, 0, 0, 0]<br/>class = 6>, fillcolor="#39e5e2ff"] ;
392 -> 396 ;
397 [label=<chlorides &le; 0.038<br/>gini = 0.625<br/>samples = 4<br/>value = [1, 1, 0, 0, 2, 0, 0]<br/>class = 7>, fillcolor="#3956e555"] ;
375 -> 397 ;
398 [label=<gini = 0.0<br/>samples = 2<br/>value = [0, 0, 0, 0, 2, 0, 0]<br/>class = 7>, fillcolor="#3956e5ff"] ;
397 -> 398 ;
399 [label=<total.sulfur.dioxide &le; 244.0<br/>gini = 0.5<br/>samples = 2<br/>value = [1, 1, 0, 0, 0, 0, 0]<br/>class = 3>, fillcolor="#e5813900"] ;
397 -> 399 ;
400 [label=<gini = 0.0<br/>samples = 1<br/>value = [1, 0, 0, 0, 0, 0, 0]<br/>class = 3>, fillcolor="#e58139ff"] ;
399 -> 400 ;
401 [label=<gini = 0.0<br/>samples = 1<br/>value = [0, 1, 0, 0, 0, 0, 0]<br/>class = 4>, fillcolor="#b7e539ff"] ;
399 -> 401 ;
402 [label=<free.sulfur.dioxide &le; 50.0<br/>gini = 0.394<br/>samples = 37<br/>value = [0, 0, 27, 10, 0, 0, 0]<br/>class = 5>, fillcolor="#39e54da1"] ;
374 -> 402 ;
403 [label=<pH &le; 3.215<br/>gini = 0.298<br/>samples = 33<br/>value = [0, 0, 27, 6, 0, 0, 0]<br/>class = 5>, fillcolor="#39e54dc6"] ;
402 -> 403 ;
404 [label=<gini = 0.0<br/>samples = 18<br/>value = [0, 0, 18, 0, 0, 0, 0]<br/>class = 5>, fillcolor="#39e54dff"] ;
403 -> 404 ;
405 [label=<free.sulfur.dioxide &le; 39.0<br/>gini = 0.48<br/>samples = 15<br/>value = [0, 0, 9, 6, 0, 0, 0]<br/>class = 5>, fillcolor="#39e54d55"] ;
403 -> 405 ;
406 [label=<total.sulfur.dioxide &le; 128.5<br/>gini = 0.496<br/>samples = 11<br/>value = [0, 0, 5, 6, 0, 0, 0]<br/>class = 6>, fillcolor="#39e5e22a"] ;
405 -> 406 ;
407 [label=<gini = 0.0<br/>samples = 3<br/>value = [0, 0, 3, 0, 0, 0, 0]<br/>class = 5>, fillcolor="#39e54dff"] ;
406 -> 407 ;
408 [label=<total.sulfur.dioxide &le; 155.5<br/>gini = 0.375<br/>samples = 8<br/>value = [0, 0, 2, 6, 0, 0, 0]<br/>class = 6>, fillcolor="#39e5e2aa"] ;
406 -> 408 ;
409 [label=<gini = 0.0<br/>samples = 5<br/>value = [0, 0, 0, 5, 0, 0, 0]<br/>class = 6>, fillcolor="#39e5e2ff"] ;
408 -> 409 ;
410 [label=<density &le; 0.997<br/>gini = 0.444<br/>samples = 3<br/>value = [0, 0, 2, 1, 0, 0, 0]<br/>class = 5>, fillcolor="#39e54d7f"] ;
408 -> 410 ;
411 [label=<gini = 0.0<br/>samples = 2<br/>value = [0, 0, 2, 0, 0, 0, 0]<br/>class = 5>, fillcolor="#39e54dff"] ;
410 -> 411 ;
412 [label=<gini = 0.0<br/>samples = 1<br/>value = [0, 0, 0, 1, 0, 0, 0]<br/>class = 6>, fillcolor="#39e5e2ff"] ;
410 -> 412 ;
413 [label=<gini = 0.0<br/>samples = 4<br/>value = [0, 0, 4, 0, 0, 0, 0]<br/>class = 5>, fillcolor="#39e54dff"] ;
405 -> 413 ;
414 [label=<gini = 0.0<br/>samples = 4<br/>value = [0, 0, 0, 4, 0, 0, 0]<br/>class = 6>, fillcolor="#39e5e2ff"] ;
402 -> 414 ;
415 [label=<density &le; 1.0<br/>gini = 0.53<br/>samples = 64<br/>value = [0, 1, 12, 41, 10, 0, 0]<br/>class = 6>, fillcolor="#39e5e28e"] ;
347 -> 415 ;
416 [label=<alcohol &le; 9.45<br/>gini = 0.398<br/>samples = 50<br/>value = [0, 1, 5, 38, 6, 0, 0]<br/>class = 6>, fillcolor="#39e5e2b9"] ;
415 -> 416 ;
417 [label=<pH &le; 3.0<br/>gini = 0.33<br/>samples = 47<br/>value = [0, 1, 5, 38, 3, 0, 0]<br/>class = 6>, fillcolor="#39e5e2c8"] ;
416 -> 417 ;
418 [label=<fixed.acidity &le; 7.3<br/>gini = 0.48<br/>samples = 5<br/>value = [0, 0, 0, 2, 3, 0, 0]<br/>class = 7>, fillcolor="#3956e555"] ;
417 -> 418 ;
419 [label=<gini = 0.0<br/>samples = 3<br/>value = [0, 0, 0, 0, 3, 0, 0]<br/>class = 7>, fillcolor="#3956e5ff"] ;
418 -> 419 ;
420 [label=<gini = 0.0<br/>samples = 2<br/>value = [0, 0, 0, 2, 0, 0, 0]<br/>class = 6>, fillcolor="#39e5e2ff"] ;
418 -> 420 ;
421 [label=<sulphates &le; 0.505<br/>gini = 0.251<br/>samples = 42<br/>value = [0, 1, 5, 36, 0, 0, 0]<br/>class = 6>, fillcolor="#39e5e2d6"] ;
417 -> 421 ;
422 [label=<fixed.acidity &le; 7.45<br/>gini = 0.069<br/>samples = 28<br/>value = [0, 1, 0, 27, 0, 0, 0]<br/>class = 6>, fillcolor="#39e5e2f6"] ;
421 -> 422 ;
423 [label=<gini = 0.0<br/>samples = 27<br/>value = [0, 0, 0, 27, 0, 0, 0]<br/>class = 6>, fillcolor="#39e5e2ff"] ;
422 -> 423 ;
424 [label=<gini = 0.0<br/>samples = 1<br/>value = [0, 1, 0, 0, 0, 0, 0]<br/>class = 4>, fillcolor="#b7e539ff"] ;
422 -> 424 ;
425 [label=<pH &le; 3.18<br/>gini = 0.459<br/>samples = 14<br/>value = [0, 0, 5, 9, 0, 0, 0]<br/>class = 6>, fillcolor="#39e5e271"] ;
421 -> 425 ;
426 [label=<sulphates &le; 0.53<br/>gini = 0.298<br/>samples = 11<br/>value = [0, 0, 2, 9, 0, 0, 0]<br/>class = 6>, fillcolor="#39e5e2c6"] ;
425 -> 426 ;
427 [label=<gini = 0.0<br/>samples = 2<br/>value = [0, 0, 2, 0, 0, 0, 0]<br/>class = 5>, fillcolor="#39e54dff"] ;
426 -> 427 ;
428 [label=<gini = 0.0<br/>samples = 9<br/>value = [0, 0, 0, 9, 0, 0, 0]<br/>class = 6>, fillcolor="#39e5e2ff"] ;
426 -> 428 ;
429 [label=<gini = 0.0<br/>samples = 3<br/>value = [0, 0, 3, 0, 0, 0, 0]<br/>class = 5>, fillcolor="#39e54dff"] ;
425 -> 429 ;
430 [label=<gini = 0.0<br/>samples = 3<br/>value = [0, 0, 0, 0, 3, 0, 0]<br/>class = 7>, fillcolor="#3956e5ff"] ;
416 -> 430 ;
431 [label=<sulphates &le; 0.64<br/>gini = 0.622<br/>samples = 14<br/>value = [0, 0, 7, 3, 4, 0, 0]<br/>class = 5>, fillcolor="#39e54d4c"] ;
415 -> 431 ;
432 [label=<volatile.acidity &le; 0.225<br/>gini = 0.42<br/>samples = 10<br/>value = [0, 0, 7, 3, 0, 0, 0]<br/>class = 5>, fillcolor="#39e54d92"] ;
431 -> 432 ;
433 [label=<gini = 0.0<br/>samples = 2<br/>value = [0, 0, 0, 2, 0, 0, 0]<br/>class = 6>, fillcolor="#39e5e2ff"] ;
432 -> 433 ;
434 [label=<volatile.acidity &le; 0.245<br/>gini = 0.219<br/>samples = 8<br/>value = [0, 0, 7, 1, 0, 0, 0]<br/>class = 5>, fillcolor="#39e54ddb"] ;
432 -> 434 ;
435 [label=<gini = 0.0<br/>samples = 5<br/>value = [0, 0, 5, 0, 0, 0, 0]<br/>class = 5>, fillcolor="#39e54dff"] ;
434 -> 435 ;
436 [label=<fixed.acidity &le; 7.6<br/>gini = 0.444<br/>samples = 3<br/>value = [0, 0, 2, 1, 0, 0, 0]<br/>class = 5>, fillcolor="#39e54d7f"] ;
434 -> 436 ;
437 [label=<gini = 0.0<br/>samples = 1<br/>value = [0, 0, 0, 1, 0, 0, 0]<br/>class = 6>, fillcolor="#39e5e2ff"] ;
436 -> 437 ;
438 [label=<gini = 0.0<br/>samples = 2<br/>value = [0, 0, 2, 0, 0, 0, 0]<br/>class = 5>, fillcolor="#39e54dff"] ;
436 -> 438 ;
439 [label=<gini = 0.0<br/>samples = 4<br/>value = [0, 0, 0, 0, 4, 0, 0]<br/>class = 7>, fillcolor="#3956e5ff"] ;
431 -> 439 ;
440 [label=<alcohol &le; 10.65<br/>gini = 0.553<br/>samples = 185<br/>value = [0, 6, 32, 116, 28, 3, 0]<br/>class = 6>, fillcolor="#39e5e28c"] ;
334 -> 440 ;
441 [label=<citric.acid &le; 0.52<br/>gini = 0.52<br/>samples = 160<br/>value = [0, 6, 30, 105, 18, 1, 0]<br/>class = 6>, fillcolor="#39e5e293"] ;
440 -> 441 ;
442 [label=<citric.acid &le; 0.185<br/>gini = 0.493<br/>samples = 151<br/>value = [0, 5, 25, 103, 17, 1, 0]<br/>class = 6>, fillcolor="#39e5e29e"] ;
441 -> 442 ;
443 [label=<pH &le; 3.325<br/>gini = 0.444<br/>samples = 3<br/>value = [0, 1, 2, 0, 0, 0, 0]<br/>class = 5>, fillcolor="#39e54d7f"] ;
442 -> 443 ;
444 [label=<gini = 0.0<br/>samples = 2<br/>value = [0, 0, 2, 0, 0, 0, 0]<br/>class = 5>, fillcolor="#39e54dff"] ;
443 -> 444 ;
445 [label=<gini = 0.0<br/>samples = 1<br/>value = [0, 1, 0, 0, 0, 0, 0]<br/>class = 4>, fillcolor="#b7e539ff"] ;
443 -> 445 ;
446 [label=<residual.sugar &le; 2.15<br/>gini = 0.478<br/>samples = 148<br/>value = [0, 4, 23, 103, 17, 1, 0]<br/>class = 6>, fillcolor="#39e5e2a3"] ;
442 -> 446 ;
447 [label=<free.sulfur.dioxide &le; 14.5<br/>gini = 0.596<br/>samples = 43<br/>value = [0, 0, 11, 24, 7, 1, 0]<br/>class = 6>, fillcolor="#39e5e268"] ;
446 -> 447 ;
448 [label=<gini = 0.0<br/>samples = 3<br/>value = [0, 0, 3, 0, 0, 0, 0]<br/>class = 5>, fillcolor="#39e54dff"] ;
447 -> 448 ;
449 [label=<pH &le; 3.285<br/>gini = 0.569<br/>samples = 40<br/>value = [0, 0, 8, 24, 7, 1, 0]<br/>class = 6>, fillcolor="#39e5e27f"] ;
447 -> 449 ;
450 [label=<fixed.acidity &le; 5.85<br/>gini = 0.48<br/>samples = 23<br/>value = [0, 0, 7, 15, 0, 1, 0]<br/>class = 6>, fillcolor="#39e5e280"] ;
449 -> 450 ;
451 [label=<gini = 0.0<br/>samples = 2<br/>value = [0, 0, 2, 0, 0, 0, 0]<br/>class = 5>, fillcolor="#39e54dff"] ;
450 -> 451 ;
452 [label=<alcohol &le; 10.35<br/>gini = 0.431<br/>samples = 21<br/>value = [0, 0, 5, 15, 0, 1, 0]<br/>class = 6>, fillcolor="#39e5e29f"] ;
450 -> 452 ;
453 [label=<gini = 0.0<br/>samples = 9<br/>value = [0, 0, 0, 9, 0, 0, 0]<br/>class = 6>, fillcolor="#39e5e2ff"] ;
452 -> 453 ;
454 [label=<total.sulfur.dioxide &le; 124.5<br/>gini = 0.569<br/>samples = 12<br/>value = [0, 0, 5, 6, 0, 1, 0]<br/>class = 6>, fillcolor="#39e5e224"] ;
452 -> 454 ;
455 [label=<total.sulfur.dioxide &le; 99.0<br/>gini = 0.406<br/>samples = 8<br/>value = [0, 0, 1, 6, 0, 1, 0]<br/>class = 6>, fillcolor="#39e5e2b6"] ;
454 -> 455 ;
456 [label=<citric.acid &le; 0.295<br/>gini = 0.5<br/>samples = 2<br/>value = [0, 0, 1, 0, 0, 1, 0]<br/>class = 5>, fillcolor="#39e54d00"] ;
455 -> 456 ;
457 [label=<gini = 0.0<br/>samples = 1<br/>value = [0, 0, 0, 0, 0, 1, 0]<br/>class = 8>, fillcolor="#b139e5ff"] ;
456 -> 457 ;
458 [label=<gini = 0.0<br/>samples = 1<br/>value = [0, 0, 1, 0, 0, 0, 0]<br/>class = 5>, fillcolor="#39e54dff"] ;
456 -> 458 ;
459 [label=<gini = 0.0<br/>samples = 6<br/>value = [0, 0, 0, 6, 0, 0, 0]<br/>class = 6>, fillcolor="#39e5e2ff"] ;
455 -> 459 ;
460 [label=<gini = 0.0<br/>samples = 4<br/>value = [0, 0, 4, 0, 0, 0, 0]<br/>class = 5>, fillcolor="#39e54dff"] ;
454 -> 460 ;
461 [label=<free.sulfur.dioxide &le; 39.5<br/>gini = 0.547<br/>samples = 17<br/>value = [0, 0, 1, 9, 7, 0, 0]<br/>class = 6>, fillcolor="#39e5e233"] ;
449 -> 461 ;
462 [label=<volatile.acidity &le; 0.225<br/>gini = 0.375<br/>samples = 12<br/>value = [0, 0, 0, 9, 3, 0, 0]<br/>class = 6>, fillcolor="#39e5e2aa"] ;
461 -> 462 ;
463 [label=<gini = 0.0<br/>samples = 7<br/>value = [0, 0, 0, 7, 0, 0, 0]<br/>class = 6>, fillcolor="#39e5e2ff"] ;
462 -> 463 ;
464 [label=<density &le; 0.993<br/>gini = 0.48<br/>samples = 5<br/>value = [0, 0, 0, 2, 3, 0, 0]<br/>class = 7>, fillcolor="#3956e555"] ;
462 -> 464 ;
465 [label=<gini = 0.0<br/>samples = 3<br/>value = [0, 0, 0, 0, 3, 0, 0]<br/>class = 7>, fillcolor="#3956e5ff"] ;
464 -> 465 ;
466 [label=<gini = 0.0<br/>samples = 2<br/>value = [0, 0, 0, 2, 0, 0, 0]<br/>class = 6>, fillcolor="#39e5e2ff"] ;
464 -> 466 ;
467 [label=<sulphates &le; 0.515<br/>gini = 0.32<br/>samples = 5<br/>value = [0, 0, 1, 0, 4, 0, 0]<br/>class = 7>, fillcolor="#3956e5bf"] ;
461 -> 467 ;
468 [label=<gini = 0.0<br/>samples = 1<br/>value = [0, 0, 1, 0, 0, 0, 0]<br/>class = 5>, fillcolor="#39e54dff"] ;
467 -> 468 ;
469 [label=<gini = 0.0<br/>samples = 4<br/>value = [0, 0, 0, 0, 4, 0, 0]<br/>class = 7>, fillcolor="#3956e5ff"] ;
467 -> 469 ;
470 [label=<pH &le; 3.555<br/>gini = 0.41<br/>samples = 105<br/>value = [0, 4, 12, 79, 10, 0, 0]<br/>class = 6>, fillcolor="#39e5e2b8"] ;
446 -> 470 ;
471 [label=<fixed.acidity &le; 6.55<br/>gini = 0.383<br/>samples = 101<br/>value = [0, 3, 10, 78, 10, 0, 0]<br/>class = 6>, fillcolor="#39e5e2bf"] ;
470 -> 471 ;
472 [label=<chlorides &le; 0.054<br/>gini = 0.069<br/>samples = 28<br/>value = [0, 0, 1, 27, 0, 0, 0]<br/>class = 6>, fillcolor="#39e5e2f6"] ;
471 -> 472 ;
473 [label=<gini = 0.0<br/>samples = 25<br/>value = [0, 0, 0, 25, 0, 0, 0]<br/>class = 6>, fillcolor="#39e5e2ff"] ;
472 -> 473 ;
474 [label=<alcohol &le; 10.2<br/>gini = 0.444<br/>samples = 3<br/>value = [0, 0, 1, 2, 0, 0, 0]<br/>class = 6>, fillcolor="#39e5e27f"] ;
472 -> 474 ;
475 [label=<gini = 0.0<br/>samples = 2<br/>value = [0, 0, 0, 2, 0, 0, 0]<br/>class = 6>, fillcolor="#39e5e2ff"] ;
474 -> 475 ;
476 [label=<gini = 0.0<br/>samples = 1<br/>value = [0, 0, 1, 0, 0, 0, 0]<br/>class = 5>, fillcolor="#39e54dff"] ;
474 -> 476 ;
477 [label=<sulphates &le; 0.695<br/>gini = 0.476<br/>samples = 73<br/>value = [0, 3, 9, 51, 10, 0, 0]<br/>class = 6>, fillcolor="#39e5e2a6"] ;
471 -> 477 ;
478 [label=<sulphates &le; 0.43<br/>gini = 0.426<br/>samples = 69<br/>value = [0, 2, 7, 51, 9, 0, 0]<br/>class = 6>, fillcolor="#39e5e2b2"] ;
477 -> 478 ;
479 [label=<gini = 0.0<br/>samples = 2<br/>value = [0, 0, 2, 0, 0, 0, 0]<br/>class = 5>, fillcolor="#39e54dff"] ;
478 -> 479 ;
480 [label=<residual.sugar &le; 2.35<br/>gini = 0.396<br/>samples = 67<br/>value = [0, 2, 5, 51, 9, 0, 0]<br/>class = 6>, fillcolor="#39e5e2b9"] ;
478 -> 480 ;
481 [label=<sulphates &le; 0.535<br/>gini = 0.5<br/>samples = 2<br/>value = [0, 0, 1, 0, 1, 0, 0]<br/>class = 5>, fillcolor="#39e54d00"] ;
480 -> 481 ;
482 [label=<gini = 0.0<br/>samples = 1<br/>value = [0, 0, 1, 0, 0, 0, 0]<br/>class = 5>, fillcolor="#39e54dff"] ;
481 -> 482 ;
483 [label=<gini = 0.0<br/>samples = 1<br/>value = [0, 0, 0, 0, 1, 0, 0]<br/>class = 7>, fillcolor="#3956e5ff"] ;
481 -> 483 ;
484 [label=<alcohol &le; 10.45<br/>gini = 0.364<br/>samples = 65<br/>value = [0, 2, 4, 51, 8, 0, 0]<br/>class = 6>, fillcolor="#39e5e2c0"] ;
480 -> 484 ;
485 [label=<residual.sugar &le; 2.85<br/>gini = 0.319<br/>samples = 55<br/>value = [0, 2, 4, 45, 4, 0, 0]<br/>class = 6>, fillcolor="#39e5e2cd"] ;
484 -> 485 ;
486 [label=<gini = 0.0<br/>samples = 1<br/>value = [0, 1, 0, 0, 0, 0, 0]<br/>class = 4>, fillcolor="#b7e539ff"] ;
485 -> 486 ;
487 [label=<citric.acid &le; 0.295<br/>gini = 0.294<br/>samples = 54<br/>value = [0, 1, 4, 45, 4, 0, 0]<br/>class = 6>, fillcolor="#39e5e2d1"] ;
485 -> 487 ;
488 [label=<gini = 0.0<br/>samples = 20<br/>value = [0, 0, 0, 20, 0, 0, 0]<br/>class = 6>, fillcolor="#39e5e2ff"] ;
487 -> 488 ;
489 [label=<gini = 0.431<br/>samples = 34<br/>value = [0, 1, 4, 25, 4, 0, 0]<br/>class = 6>, fillcolor="#39e5e2b2"] ;
487 -> 489 ;
490 [label=<free.sulfur.dioxide &le; 43.0<br/>gini = 0.48<br/>samples = 10<br/>value = [0, 0, 0, 6, 4, 0, 0]<br/>class = 6>, fillcolor="#39e5e255"] ;
484 -> 490 ;
491 [label=<gini = 0.0<br/>samples = 4<br/>value = [0, 0, 0, 4, 0, 0, 0]<br/>class = 6>, fillcolor="#39e5e2ff"] ;
490 -> 491 ;
492 [label=<pH &le; 3.125<br/>gini = 0.444<br/>samples = 6<br/>value = [0, 0, 0, 2, 4, 0, 0]<br/>class = 7>, fillcolor="#3956e57f"] ;
490 -> 492 ;
493 [label=<gini = 0.444<br/>samples = 3<br/>value = [0, 0, 0, 2, 1, 0, 0]<br/>class = 6>, fillcolor="#39e5e27f"] ;
492 -> 493 ;
494 [label=<gini = 0.0<br/>samples = 3<br/>value = [0, 0, 0, 0, 3, 0, 0]<br/>class = 7>, fillcolor="#3956e5ff"] ;
492 -> 494 ;
495 [label=<density &le; 0.996<br/>gini = 0.625<br/>samples = 4<br/>value = [0, 1, 2, 0, 1, 0, 0]<br/>class = 5>, fillcolor="#39e54d55"] ;
477 -> 495 ;
496 [label=<residual.sugar &le; 7.25<br/>gini = 0.5<br/>samples = 2<br/>value = [0, 1, 0, 0, 1, 0, 0]<br/>class = 4>, fillcolor="#b7e53900"] ;
495 -> 496 ;
497 [label=<gini = 0.0<br/>samples = 1<br/>value = [0, 1, 0, 0, 0, 0, 0]<br/>class = 4>, fillcolor="#b7e539ff"] ;
496 -> 497 ;
498 [label=<gini = 0.0<br/>samples = 1<br/>value = [0, 0, 0, 0, 1, 0, 0]<br/>class = 7>, fillcolor="#3956e5ff"] ;
496 -> 498 ;
499 [label=<gini = 0.0<br/>samples = 2<br/>value = [0, 0, 2, 0, 0, 0, 0]<br/>class = 5>, fillcolor="#39e54dff"] ;
495 -> 499 ;
500 [label=<volatile.acidity &le; 0.23<br/>gini = 0.625<br/>samples = 4<br/>value = [0, 1, 2, 1, 0, 0, 0]<br/>class = 5>, fillcolor="#39e54d55"] ;
470 -> 500 ;
501 [label=<density &le; 0.996<br/>gini = 0.5<br/>samples = 2<br/>value = [0, 1, 0, 1, 0, 0, 0]<br/>class = 4>, fillcolor="#b7e53900"] ;
500 -> 501 ;
502 [label=<gini = 0.0<br/>samples = 1<br/>value = [0, 0, 0, 1, 0, 0, 0]<br/>class = 6>, fillcolor="#39e5e2ff"] ;
501 -> 502 ;
503 [label=<gini = 0.0<br/>samples = 1<br/>value = [0, 1, 0, 0, 0, 0, 0]<br/>class = 4>, fillcolor="#b7e539ff"] ;
501 -> 503 ;
504 [label=<gini = 0.0<br/>samples = 2<br/>value = [0, 0, 2, 0, 0, 0, 0]<br/>class = 5>, fillcolor="#39e54dff"] ;
500 -> 504 ;
505 [label=<citric.acid &le; 0.555<br/>gini = 0.617<br/>samples = 9<br/>value = [0, 1, 5, 2, 1, 0, 0]<br/>class = 5>, fillcolor="#39e54d6d"] ;
441 -> 505 ;
506 [label=<gini = 0.0<br/>samples = 4<br/>value = [0, 0, 4, 0, 0, 0, 0]<br/>class = 5>, fillcolor="#39e54dff"] ;
505 -> 506 ;
507 [label=<chlorides &le; 0.055<br/>gini = 0.72<br/>samples = 5<br/>value = [0, 1, 1, 2, 1, 0, 0]<br/>class = 6>, fillcolor="#39e5e240"] ;
505 -> 507 ;
508 [label=<chlorides &le; 0.042<br/>gini = 0.444<br/>samples = 3<br/>value = [0, 0, 1, 2, 0, 0, 0]<br/>class = 6>, fillcolor="#39e5e27f"] ;
507 -> 508 ;
509 [label=<gini = 0.0<br/>samples = 1<br/>value = [0, 0, 1, 0, 0, 0, 0]<br/>class = 5>, fillcolor="#39e54dff"] ;
508 -> 509 ;
510 [label=<gini = 0.0<br/>samples = 2<br/>value = [0, 0, 0, 2, 0, 0, 0]<br/>class = 6>, fillcolor="#39e5e2ff"] ;
508 -> 510 ;
511 [label=<pH &le; 3.155<br/>gini = 0.5<br/>samples = 2<br/>value = [0, 1, 0, 0, 1, 0, 0]<br/>class = 4>, fillcolor="#b7e53900"] ;
507 -> 511 ;
512 [label=<gini = 0.0<br/>samples = 1<br/>value = [0, 1, 0, 0, 0, 0, 0]<br/>class = 4>, fillcolor="#b7e539ff"] ;
511 -> 512 ;
513 [label=<gini = 0.0<br/>samples = 1<br/>value = [0, 0, 0, 0, 1, 0, 0]<br/>class = 7>, fillcolor="#3956e5ff"] ;
511 -> 513 ;
514 [label=<sulphates &le; 0.52<br/>gini = 0.634<br/>samples = 25<br/>value = [0, 0, 2, 11, 10, 2, 0]<br/>class = 6>, fillcolor="#39e5e211"] ;
440 -> 514 ;
515 [label=<free.sulfur.dioxide &le; 30.5<br/>gini = 0.397<br/>samples = 11<br/>value = [0, 0, 0, 8, 3, 0, 0]<br/>class = 6>, fillcolor="#39e5e29f"] ;
514 -> 515 ;
516 [label=<residual.sugar &le; 1.3<br/>gini = 0.5<br/>samples = 6<br/>value = [0, 0, 0, 3, 3, 0, 0]<br/>class = 6>, fillcolor="#39e5e200"] ;
515 -> 516 ;
517 [label=<gini = 0.0<br/>samples = 3<br/>value = [0, 0, 0, 3, 0, 0, 0]<br/>class = 6>, fillcolor="#39e5e2ff"] ;
516 -> 517 ;
518 [label=<gini = 0.0<br/>samples = 3<br/>value = [0, 0, 0, 0, 3, 0, 0]<br/>class = 7>, fillcolor="#3956e5ff"] ;
516 -> 518 ;
519 [label=<gini = 0.0<br/>samples = 5<br/>value = [0, 0, 0, 5, 0, 0, 0]<br/>class = 6>, fillcolor="#39e5e2ff"] ;
515 -> 519 ;
520 [label=<chlorides &le; 0.045<br/>gini = 0.663<br/>samples = 14<br/>value = [0, 0, 2, 3, 7, 2, 0]<br/>class = 7>, fillcolor="#3956e55d"] ;
514 -> 520 ;
521 [label=<pH &le; 3.2<br/>gini = 0.42<br/>samples = 10<br/>value = [0, 0, 0, 3, 7, 0, 0]<br/>class = 7>, fillcolor="#3956e592"] ;
520 -> 521 ;
522 [label=<gini = 0.0<br/>samples = 5<br/>value = [0, 0, 0, 0, 5, 0, 0]<br/>class = 7>, fillcolor="#3956e5ff"] ;
521 -> 522 ;
523 [label=<alcohol &le; 10.75<br/>gini = 0.48<br/>samples = 5<br/>value = [0, 0, 0, 3, 2, 0, 0]<br/>class = 6>, fillcolor="#39e5e255"] ;
521 -> 523 ;
524 [label=<free.sulfur.dioxide &le; 18.5<br/>gini = 0.444<br/>samples = 3<br/>value = [0, 0, 0, 1, 2, 0, 0]<br/>class = 7>, fillcolor="#3956e57f"] ;
523 -> 524 ;
525 [label=<gini = 0.0<br/>samples = 1<br/>value = [0, 0, 0, 1, 0, 0, 0]<br/>class = 6>, fillcolor="#39e5e2ff"] ;
524 -> 525 ;
526 [label=<gini = 0.0<br/>samples = 2<br/>value = [0, 0, 0, 0, 2, 0, 0]<br/>class = 7>, fillcolor="#3956e5ff"] ;
524 -> 526 ;
527 [label=<gini = 0.0<br/>samples = 2<br/>value = [0, 0, 0, 2, 0, 0, 0]<br/>class = 6>, fillcolor="#39e5e2ff"] ;
523 -> 527 ;
528 [label=<citric.acid &le; 0.295<br/>gini = 0.5<br/>samples = 4<br/>value = [0, 0, 2, 0, 0, 2, 0]<br/>class = 5>, fillcolor="#39e54d00"] ;
520 -> 528 ;
529 [label=<gini = 0.0<br/>samples = 2<br/>value = [0, 0, 2, 0, 0, 0, 0]<br/>class = 5>, fillcolor="#39e54dff"] ;
528 -> 529 ;
530 [label=<gini = 0.0<br/>samples = 2<br/>value = [0, 0, 0, 0, 0, 2, 0]<br/>class = 8>, fillcolor="#b139e5ff"] ;
528 -> 530 ;
531 [label=<alcohol &le; 9.85<br/>gini = 0.569<br/>samples = 1162<br/>value = [4, 73, 640, 407, 33, 4, 1]<br/>class = 5>, fillcolor="#39e54d4f"] ;
1 -> 531 ;
532 [label=<citric.acid &le; 0.235<br/>gini = 0.513<br/>samples = 775<br/>value = [3, 42, 489, 227, 13, 1, 0]<br/>class = 5>, fillcolor="#39e54d7a"] ;
531 -> 532 ;
533 [label=<chlorides &le; 0.054<br/>gini = 0.409<br/>samples = 174<br/>value = [0, 18, 130, 26, 0, 0, 0]<br/>class = 5>, fillcolor="#39e54db3"] ;
532 -> 533 ;
534 [label=<citric.acid &le; 0.025<br/>gini = 0.228<br/>samples = 110<br/>value = [0, 3, 96, 11, 0, 0, 0]<br/>class = 5>, fillcolor="#39e54ddb"] ;
533 -> 534 ;
535 [label=<total.sulfur.dioxide &le; 81.5<br/>gini = 0.5<br/>samples = 6<br/>value = [0, 3, 3, 0, 0, 0, 0]<br/>class = 4>, fillcolor="#b7e53900"] ;
534 -> 535 ;
536 [label=<gini = 0.0<br/>samples = 2<br/>value = [0, 2, 0, 0, 0, 0, 0]<br/>class = 4>, fillcolor="#b7e539ff"] ;
535 -> 536 ;
537 [label=<fixed.acidity &le; 7.1<br/>gini = 0.375<br/>samples = 4<br/>value = [0, 1, 3, 0, 0, 0, 0]<br/>class = 5>, fillcolor="#39e54daa"] ;
535 -> 537 ;
538 [label=<gini = 0.0<br/>samples = 3<br/>value = [0, 0, 3, 0, 0, 0, 0]<br/>class = 5>, fillcolor="#39e54dff"] ;
537 -> 538 ;
539 [label=<gini = 0.0<br/>samples = 1<br/>value = [0, 1, 0, 0, 0, 0, 0]<br/>class = 4>, fillcolor="#b7e539ff"] ;
537 -> 539 ;
540 [label=<sulphates &le; 0.455<br/>gini = 0.189<br/>samples = 104<br/>value = [0, 0, 93, 11, 0, 0, 0]<br/>class = 5>, fillcolor="#39e54de1"] ;
534 -> 540 ;
541 [label=<pH &le; 3.19<br/>gini = 0.349<br/>samples = 40<br/>value = [0, 0, 31, 9, 0, 0, 0]<br/>class = 5>, fillcolor="#39e54db5"] ;
540 -> 541 ;
542 [label=<volatile.acidity &le; 0.36<br/>gini = 0.48<br/>samples = 20<br/>value = [0, 0, 12, 8, 0, 0, 0]<br/>class = 5>, fillcolor="#39e54d55"] ;
541 -> 542 ;
543 [label=<citric.acid &le; 0.175<br/>gini = 0.49<br/>samples = 14<br/>value = [0, 0, 6, 8, 0, 0, 0]<br/>class = 6>, fillcolor="#39e5e240"] ;
542 -> 543 ;
544 [label=<free.sulfur.dioxide &le; 12.0<br/>gini = 0.408<br/>samples = 7<br/>value = [0, 0, 5, 2, 0, 0, 0]<br/>class = 5>, fillcolor="#39e54d99"] ;
543 -> 544 ;
545 [label=<gini = 0.0<br/>samples = 1<br/>value = [0, 0, 0, 1, 0, 0, 0]<br/>class = 6>, fillcolor="#39e5e2ff"] ;
544 -> 545 ;
546 [label=<chlorides &le; 0.038<br/>gini = 0.278<br/>samples = 6<br/>value = [0, 0, 5, 1, 0, 0, 0]<br/>class = 5>, fillcolor="#39e54dcc"] ;
544 -> 546 ;
547 [label=<gini = 0.0<br/>samples = 1<br/>value = [0, 0, 0, 1, 0, 0, 0]<br/>class = 6>, fillcolor="#39e5e2ff"] ;
546 -> 547 ;
548 [label=<gini = 0.0<br/>samples = 5<br/>value = [0, 0, 5, 0, 0, 0, 0]<br/>class = 5>, fillcolor="#39e54dff"] ;
546 -> 548 ;
549 [label=<chlorides &le; 0.042<br/>gini = 0.245<br/>samples = 7<br/>value = [0, 0, 1, 6, 0, 0, 0]<br/>class = 6>, fillcolor="#39e5e2d4"] ;
543 -> 549 ;
550 [label=<gini = 0.0<br/>samples = 1<br/>value = [0, 0, 1, 0, 0, 0, 0]<br/>class = 5>, fillcolor="#39e54dff"] ;
549 -> 550 ;
551 [label=<gini = 0.0<br/>samples = 6<br/>value = [0, 0, 0, 6, 0, 0, 0]<br/>class = 6>, fillcolor="#39e5e2ff"] ;
549 -> 551 ;
552 [label=<gini = 0.0<br/>samples = 6<br/>value = [0, 0, 6, 0, 0, 0, 0]<br/>class = 5>, fillcolor="#39e54dff"] ;
542 -> 552 ;
553 [label=<volatile.acidity &le; 0.265<br/>gini = 0.095<br/>samples = 20<br/>value = [0, 0, 19, 1, 0, 0, 0]<br/>class = 5>, fillcolor="#39e54df2"] ;
541 -> 553 ;
554 [label=<gini = 0.0<br/>samples = 1<br/>value = [0, 0, 0, 1, 0, 0, 0]<br/>class = 6>, fillcolor="#39e5e2ff"] ;
553 -> 554 ;
555 [label=<gini = 0.0<br/>samples = 19<br/>value = [0, 0, 19, 0, 0, 0, 0]<br/>class = 5>, fillcolor="#39e54dff"] ;
553 -> 555 ;
556 [label=<pH &le; 2.935<br/>gini = 0.061<br/>samples = 64<br/>value = [0, 0, 62, 2, 0, 0, 0]<br/>class = 5>, fillcolor="#39e54df7"] ;
540 -> 556 ;
557 [label=<gini = 0.0<br/>samples = 1<br/>value = [0, 0, 0, 1, 0, 0, 0]<br/>class = 6>, fillcolor="#39e5e2ff"] ;
556 -> 557 ;
558 [label=<density &le; 0.998<br/>gini = 0.031<br/>samples = 63<br/>value = [0, 0, 62, 1, 0, 0, 0]<br/>class = 5>, fillcolor="#39e54dfb"] ;
556 -> 558 ;
559 [label=<gini = 0.0<br/>samples = 56<br/>value = [0, 0, 56, 0, 0, 0, 0]<br/>class = 5>, fillcolor="#39e54dff"] ;
558 -> 559 ;
560 [label=<density &le; 0.998<br/>gini = 0.245<br/>samples = 7<br/>value = [0, 0, 6, 1, 0, 0, 0]<br/>class = 5>, fillcolor="#39e54dd4"] ;
558 -> 560 ;
561 [label=<gini = 0.0<br/>samples = 1<br/>value = [0, 0, 0, 1, 0, 0, 0]<br/>class = 6>, fillcolor="#39e5e2ff"] ;
560 -> 561 ;
562 [label=<gini = 0.0<br/>samples = 6<br/>value = [0, 0, 6, 0, 0, 0, 0]<br/>class = 5>, fillcolor="#39e54dff"] ;
560 -> 562 ;
563 [label=<sulphates &le; 0.37<br/>gini = 0.608<br/>samples = 64<br/>value = [0, 15, 34, 15, 0, 0, 0]<br/>class = 5>, fillcolor="#39e54d63"] ;
533 -> 563 ;
564 [label=<gini = 0.0<br/>samples = 3<br/>value = [0, 3, 0, 0, 0, 0, 0]<br/>class = 4>, fillcolor="#b7e539ff"] ;
563 -> 564 ;
565 [label=<pH &le; 3.025<br/>gini = 0.59<br/>samples = 61<br/>value = [0, 12, 34, 15, 0, 0, 0]<br/>class = 5>, fillcolor="#39e54d69"] ;
563 -> 565 ;
566 [label=<alcohol &le; 9.45<br/>gini = 0.408<br/>samples = 7<br/>value = [0, 0, 2, 5, 0, 0, 0]<br/>class = 6>, fillcolor="#39e5e299"] ;
565 -> 566 ;
567 [label=<gini = 0.0<br/>samples = 5<br/>value = [0, 0, 0, 5, 0, 0, 0]<br/>class = 6>, fillcolor="#39e5e2ff"] ;
566 -> 567 ;
568 [label=<gini = 0.0<br/>samples = 2<br/>value = [0, 0, 2, 0, 0, 0, 0]<br/>class = 5>, fillcolor="#39e54dff"] ;
566 -> 568 ;
569 [label=<citric.acid &le; 0.205<br/>gini = 0.565<br/>samples = 54<br/>value = [0, 12, 32, 10, 0, 0, 0]<br/>class = 5>, fillcolor="#39e54d79"] ;
565 -> 569 ;
570 [label=<sulphates &le; 0.505<br/>gini = 0.648<br/>samples = 36<br/>value = [0, 10, 16, 10, 0, 0, 0]<br/>class = 5>, fillcolor="#39e54d3b"] ;
569 -> 570 ;
571 [label=<density &le; 0.999<br/>gini = 0.64<br/>samples = 22<br/>value = [0, 5, 7, 10, 0, 0, 0]<br/>class = 6>, fillcolor="#39e5e233"] ;
570 -> 571 ;
572 [label=<density &le; 0.995<br/>gini = 0.657<br/>samples = 17<br/>value = [0, 5, 7, 5, 0, 0, 0]<br/>class = 5>, fillcolor="#39e54d2a"] ;
571 -> 572 ;
573 [label=<density &le; 0.994<br/>gini = 0.5<br/>samples = 10<br/>value = [0, 0, 5, 5, 0, 0, 0]<br/>class = 5>, fillcolor="#39e54d00"] ;
572 -> 573 ;
574 [label=<gini = 0.0<br/>samples = 3<br/>value = [0, 0, 0, 3, 0, 0, 0]<br/>class = 6>, fillcolor="#39e5e2ff"] ;
573 -> 574 ;
575 [label=<volatile.acidity &le; 0.375<br/>gini = 0.408<br/>samples = 7<br/>value = [0, 0, 5, 2, 0, 0, 0]<br/>class = 5>, fillcolor="#39e54d99"] ;
573 -> 575 ;
576 [label=<gini = 0.0<br/>samples = 5<br/>value = [0, 0, 5, 0, 0, 0, 0]<br/>class = 5>, fillcolor="#39e54dff"] ;
575 -> 576 ;
577 [label=<gini = 0.0<br/>samples = 2<br/>value = [0, 0, 0, 2, 0, 0, 0]<br/>class = 6>, fillcolor="#39e5e2ff"] ;
575 -> 577 ;
578 [label=<free.sulfur.dioxide &le; 43.5<br/>gini = 0.408<br/>samples = 7<br/>value = [0, 5, 2, 0, 0, 0, 0]<br/>class = 4>, fillcolor="#b7e53999"] ;
572 -> 578 ;
579 [label=<gini = 0.0<br/>samples = 5<br/>value = [0, 5, 0, 0, 0, 0, 0]<br/>class = 4>, fillcolor="#b7e539ff"] ;
578 -> 579 ;
580 [label=<gini = 0.0<br/>samples = 2<br/>value = [0, 0, 2, 0, 0, 0, 0]<br/>class = 5>, fillcolor="#39e54dff"] ;
578 -> 580 ;
581 [label=<gini = 0.0<br/>samples = 5<br/>value = [0, 0, 0, 5, 0, 0, 0]<br/>class = 6>, fillcolor="#39e5e2ff"] ;
571 -> 581 ;
582 [label=<volatile.acidity &le; 0.315<br/>gini = 0.459<br/>samples = 14<br/>value = [0, 5, 9, 0, 0, 0, 0]<br/>class = 5>, fillcolor="#39e54d71"] ;
570 -> 582 ;
583 [label=<gini = 0.0<br/>samples = 4<br/>value = [0, 4, 0, 0, 0, 0, 0]<br/>class = 4>, fillcolor="#b7e539ff"] ;
582 -> 583 ;
584 [label=<chlorides &le; 0.102<br/>gini = 0.18<br/>samples = 10<br/>value = [0, 1, 9, 0, 0, 0, 0]<br/>class = 5>, fillcolor="#39e54de3"] ;
582 -> 584 ;
585 [label=<gini = 0.0<br/>samples = 9<br/>value = [0, 0, 9, 0, 0, 0, 0]<br/>class = 5>, fillcolor="#39e54dff"] ;
584 -> 585 ;
586 [label=<gini = 0.0<br/>samples = 1<br/>value = [0, 1, 0, 0, 0, 0, 0]<br/>class = 4>, fillcolor="#b7e539ff"] ;
584 -> 586 ;
587 [label=<chlorides &le; 0.055<br/>gini = 0.198<br/>samples = 18<br/>value = [0, 2, 16, 0, 0, 0, 0]<br/>class = 5>, fillcolor="#39e54ddf"] ;
569 -> 587 ;
588 [label=<density &le; 0.999<br/>gini = 0.444<br/>samples = 3<br/>value = [0, 2, 1, 0, 0, 0, 0]<br/>class = 4>, fillcolor="#b7e5397f"] ;
587 -> 588 ;
589 [label=<gini = 0.0<br/>samples = 2<br/>value = [0, 2, 0, 0, 0, 0, 0]<br/>class = 4>, fillcolor="#b7e539ff"] ;
588 -> 589 ;
590 [label=<gini = 0.0<br/>samples = 1<br/>value = [0, 0, 1, 0, 0, 0, 0]<br/>class = 5>, fillcolor="#39e54dff"] ;
588 -> 590 ;
591 [label=<gini = 0.0<br/>samples = 15<br/>value = [0, 0, 15, 0, 0, 0, 0]<br/>class = 5>, fillcolor="#39e54dff"] ;
587 -> 591 ;
592 [label=<volatile.acidity &le; 0.303<br/>gini = 0.529<br/>samples = 601<br/>value = [3, 24, 359, 201, 13, 1, 0]<br/>class = 5>, fillcolor="#39e54d65"] ;
532 -> 592 ;
593 [label=<chlorides &le; 0.05<br/>gini = 0.556<br/>samples = 271<br/>value = [0, 8, 137, 117, 8, 1, 0]<br/>class = 5>, fillcolor="#39e54d21"] ;
592 -> 593 ;
594 [label=<alcohol &le; 9.45<br/>gini = 0.56<br/>samples = 182<br/>value = [0, 5, 80, 90, 6, 1, 0]<br/>class = 6>, fillcolor="#39e5e219"] ;
593 -> 594 ;
595 [label=<total.sulfur.dioxide &le; 171.5<br/>gini = 0.553<br/>samples = 120<br/>value = [0, 5, 64, 48, 3, 0, 0]<br/>class = 5>, fillcolor="#39e54d39"] ;
594 -> 595 ;
596 [label=<alcohol &le; 8.75<br/>gini = 0.507<br/>samples = 59<br/>value = [0, 1, 25, 33, 0, 0, 0]<br/>class = 6>, fillcolor="#39e5e23c"] ;
595 -> 596 ;
597 [label=<gini = 0.0<br/>samples = 9<br/>value = [0, 0, 9, 0, 0, 0, 0]<br/>class = 5>, fillcolor="#39e54dff"] ;
596 -> 597 ;
598 [label=<residual.sugar &le; 2.15<br/>gini = 0.462<br/>samples = 50<br/>value = [0, 1, 16, 33, 0, 0, 0]<br/>class = 6>, fillcolor="#39e5e280"] ;
596 -> 598 ;
599 [label=<gini = 0.0<br/>samples = 8<br/>value = [0, 0, 8, 0, 0, 0, 0]<br/>class = 5>, fillcolor="#39e54dff"] ;
598 -> 599 ;
600 [label=<fixed.acidity &le; 5.95<br/>gini = 0.346<br/>samples = 42<br/>value = [0, 1, 8, 33, 0, 0, 0]<br/>class = 6>, fillcolor="#39e5e2bc"] ;
598 -> 600 ;
601 [label=<pH &le; 3.295<br/>gini = 0.375<br/>samples = 4<br/>value = [0, 0, 3, 1, 0, 0, 0]<br/>class = 5>, fillcolor="#39e54daa"] ;
600 -> 601 ;
602 [label=<gini = 0.0<br/>samples = 1<br/>value = [0, 0, 0, 1, 0, 0, 0]<br/>class = 6>, fillcolor="#39e5e2ff"] ;
601 -> 602 ;
603 [label=<gini = 0.0<br/>samples = 3<br/>value = [0, 0, 3, 0, 0, 0, 0]<br/>class = 5>, fillcolor="#39e54dff"] ;
601 -> 603 ;
604 [label=<pH &le; 3.37<br/>gini = 0.273<br/>samples = 38<br/>value = [0, 1, 5, 32, 0, 0, 0]<br/>class = 6>, fillcolor="#39e5e2d1"] ;
600 -> 604 ;
605 [label=<pH &le; 3.035<br/>gini = 0.24<br/>samples = 37<br/>value = [0, 1, 4, 32, 0, 0, 0]<br/>class = 6>, fillcolor="#39e5e2d8"] ;
604 -> 605 ;
606 [label=<total.sulfur.dioxide &le; 164.0<br/>gini = 0.463<br/>samples = 11<br/>value = [0, 0, 4, 7, 0, 0, 0]<br/>class = 6>, fillcolor="#39e5e26d"] ;
605 -> 606 ;
607 [label=<sulphates &le; 0.42<br/>gini = 0.444<br/>samples = 6<br/>value = [0, 0, 4, 2, 0, 0, 0]<br/>class = 5>, fillcolor="#39e54d7f"] ;
606 -> 607 ;
608 [label=<gini = 0.0<br/>samples = 2<br/>value = [0, 0, 0, 2, 0, 0, 0]<br/>class = 6>, fillcolor="#39e5e2ff"] ;
607 -> 608 ;
609 [label=<gini = 0.0<br/>samples = 4<br/>value = [0, 0, 4, 0, 0, 0, 0]<br/>class = 5>, fillcolor="#39e54dff"] ;
607 -> 609 ;
610 [label=<gini = 0.0<br/>samples = 5<br/>value = [0, 0, 0, 5, 0, 0, 0]<br/>class = 6>, fillcolor="#39e5e2ff"] ;
606 -> 610 ;
611 [label=<citric.acid &le; 0.585<br/>gini = 0.074<br/>samples = 26<br/>value = [0, 1, 0, 25, 0, 0, 0]<br/>class = 6>, fillcolor="#39e5e2f5"] ;
605 -> 611 ;
612 [label=<gini = 0.0<br/>samples = 25<br/>value = [0, 0, 0, 25, 0, 0, 0]<br/>class = 6>, fillcolor="#39e5e2ff"] ;
611 -> 612 ;
613 [label=<gini = 0.0<br/>samples = 1<br/>value = [0, 1, 0, 0, 0, 0, 0]<br/>class = 4>, fillcolor="#b7e539ff"] ;
611 -> 613 ;
614 [label=<gini = 0.0<br/>samples = 1<br/>value = [0, 0, 1, 0, 0, 0, 0]<br/>class = 5>, fillcolor="#39e54dff"] ;
604 -> 614 ;
615 [label=<citric.acid &le; 0.315<br/>gini = 0.524<br/>samples = 61<br/>value = [0, 4, 39, 15, 3, 0, 0]<br/>class = 5>, fillcolor="#39e54d85"] ;
595 -> 615 ;
616 [label=<residual.sugar &le; 14.5<br/>gini = 0.524<br/>samples = 15<br/>value = [0, 1, 5, 9, 0, 0, 0]<br/>class = 6>, fillcolor="#39e5e266"] ;
615 -> 616 ;
617 [label=<sulphates &le; 0.52<br/>gini = 0.219<br/>samples = 8<br/>value = [0, 1, 0, 7, 0, 0, 0]<br/>class = 6>, fillcolor="#39e5e2db"] ;
616 -> 617 ;
618 [label=<gini = 0.0<br/>samples = 6<br/>value = [0, 0, 0, 6, 0, 0, 0]<br/>class = 6>, fillcolor="#39e5e2ff"] ;
617 -> 618 ;
619 [label=<density &le; 0.995<br/>gini = 0.5<br/>samples = 2<br/>value = [0, 1, 0, 1, 0, 0, 0]<br/>class = 4>, fillcolor="#b7e53900"] ;
617 -> 619 ;
620 [label=<gini = 0.0<br/>samples = 1<br/>value = [0, 0, 0, 1, 0, 0, 0]<br/>class = 6>, fillcolor="#39e5e2ff"] ;
619 -> 620 ;
621 [label=<gini = 0.0<br/>samples = 1<br/>value = [0, 1, 0, 0, 0, 0, 0]<br/>class = 4>, fillcolor="#b7e539ff"] ;
619 -> 621 ;
622 [label=<fixed.acidity &le; 7.55<br/>gini = 0.408<br/>samples = 7<br/>value = [0, 0, 5, 2, 0, 0, 0]<br/>class = 5>, fillcolor="#39e54d99"] ;
616 -> 622 ;
623 [label=<gini = 0.0<br/>samples = 4<br/>value = [0, 0, 4, 0, 0, 0, 0]<br/>class = 5>, fillcolor="#39e54dff"] ;
622 -> 623 ;
624 [label=<volatile.acidity &le; 0.29<br/>gini = 0.444<br/>samples = 3<br/>value = [0, 0, 1, 2, 0, 0, 0]<br/>class = 6>, fillcolor="#39e5e27f"] ;
622 -> 624 ;
625 [label=<gini = 0.0<br/>samples = 2<br/>value = [0, 0, 0, 2, 0, 0, 0]<br/>class = 6>, fillcolor="#39e5e2ff"] ;
624 -> 625 ;
626 [label=<gini = 0.0<br/>samples = 1<br/>value = [0, 0, 1, 0, 0, 0, 0]<br/>class = 5>, fillcolor="#39e54dff"] ;
624 -> 626 ;
627 [label=<chlorides &le; 0.048<br/>gini = 0.428<br/>samples = 46<br/>value = [0, 3, 34, 6, 3, 0, 0]<br/>class = 5>, fillcolor="#39e54db2"] ;
615 -> 627 ;
628 [label=<pH &le; 3.22<br/>gini = 0.328<br/>samples = 42<br/>value = [0, 1, 34, 5, 2, 0, 0]<br/>class = 5>, fillcolor="#39e54dc8"] ;
627 -> 628 ;
629 [label=<residual.sugar &le; 14.6<br/>gini = 0.205<br/>samples = 36<br/>value = [0, 1, 32, 2, 1, 0, 0]<br/>class = 5>, fillcolor="#39e54de1"] ;
628 -> 629 ;
630 [label=<citric.acid &le; 0.62<br/>gini = 0.16<br/>samples = 35<br/>value = [0, 1, 32, 2, 0, 0, 0]<br/>class = 5>, fillcolor="#39e54de8"] ;
629 -> 630 ;
631 [label=<residual.sugar &le; 6.4<br/>gini = 0.111<br/>samples = 34<br/>value = [0, 0, 32, 2, 0, 0, 0]<br/>class = 5>, fillcolor="#39e54def"] ;
630 -> 631 ;
632 [label=<gini = 0.0<br/>samples = 1<br/>value = [0, 0, 0, 1, 0, 0, 0]<br/>class = 6>, fillcolor="#39e5e2ff"] ;
631 -> 632 ;
633 [label=<density &le; 0.995<br/>gini = 0.059<br/>samples = 33<br/>value = [0, 0, 32, 1, 0, 0, 0]<br/>class = 5>, fillcolor="#39e54df7"] ;
631 -> 633 ;
634 [label=<free.sulfur.dioxide &le; 60.5<br/>gini = 0.444<br/>samples = 3<br/>value = [0, 0, 2, 1, 0, 0, 0]<br/>class = 5>, fillcolor="#39e54d7f"] ;
633 -> 634 ;
635 [label=<gini = 0.0<br/>samples = 1<br/>value = [0, 0, 0, 1, 0, 0, 0]<br/>class = 6>, fillcolor="#39e5e2ff"] ;
634 -> 635 ;
636 [label=<gini = 0.0<br/>samples = 2<br/>value = [0, 0, 2, 0, 0, 0, 0]<br/>class = 5>, fillcolor="#39e54dff"] ;
634 -> 636 ;
637 [label=<gini = 0.0<br/>samples = 30<br/>value = [0, 0, 30, 0, 0, 0, 0]<br/>class = 5>, fillcolor="#39e54dff"] ;
633 -> 637 ;
638 [label=<gini = 0.0<br/>samples = 1<br/>value = [0, 1, 0, 0, 0, 0, 0]<br/>class = 4>, fillcolor="#b7e539ff"] ;
630 -> 638 ;
639 [label=<gini = 0.0<br/>samples = 1<br/>value = [0, 0, 0, 0, 1, 0, 0]<br/>class = 7>, fillcolor="#3956e5ff"] ;
629 -> 639 ;
640 [label=<citric.acid &le; 0.435<br/>gini = 0.611<br/>samples = 6<br/>value = [0, 0, 2, 3, 1, 0, 0]<br/>class = 6>, fillcolor="#39e5e240"] ;
628 -> 640 ;
641 [label=<total.sulfur.dioxide &le; 175.0<br/>gini = 0.444<br/>samples = 3<br/>value = [0, 0, 2, 0, 1, 0, 0]<br/>class = 5>, fillcolor="#39e54d7f"] ;
640 -> 641 ;
642 [label=<gini = 0.0<br/>samples = 1<br/>value = [0, 0, 0, 0, 1, 0, 0]<br/>class = 7>, fillcolor="#3956e5ff"] ;
641 -> 642 ;
643 [label=<gini = 0.0<br/>samples = 2<br/>value = [0, 0, 2, 0, 0, 0, 0]<br/>class = 5>, fillcolor="#39e54dff"] ;
641 -> 643 ;
644 [label=<gini = 0.0<br/>samples = 3<br/>value = [0, 0, 0, 3, 0, 0, 0]<br/>class = 6>, fillcolor="#39e5e2ff"] ;
640 -> 644 ;
645 [label=<density &le; 0.996<br/>gini = 0.625<br/>samples = 4<br/>value = [0, 2, 0, 1, 1, 0, 0]<br/>class = 4>, fillcolor="#b7e53955"] ;
627 -> 645 ;
646 [label=<gini = 0.0<br/>samples = 2<br/>value = [0, 2, 0, 0, 0, 0, 0]<br/>class = 4>, fillcolor="#b7e539ff"] ;
645 -> 646 ;
647 [label=<sulphates &le; 0.445<br/>gini = 0.5<br/>samples = 2<br/>value = [0, 0, 0, 1, 1, 0, 0]<br/>class = 6>, fillcolor="#39e5e200"] ;
645 -> 647 ;
648 [label=<gini = 0.0<br/>samples = 1<br/>value = [0, 0, 0, 0, 1, 0, 0]<br/>class = 7>, fillcolor="#3956e5ff"] ;
647 -> 648 ;
649 [label=<gini = 0.0<br/>samples = 1<br/>value = [0, 0, 0, 1, 0, 0, 0]<br/>class = 6>, fillcolor="#39e5e2ff"] ;
647 -> 649 ;
650 [label=<density &le; 0.997<br/>gini = 0.472<br/>samples = 62<br/>value = [0, 0, 16, 42, 3, 1, 0]<br/>class = 6>, fillcolor="#39e5e290"] ;
594 -> 650 ;
651 [label=<volatile.acidity &le; 0.265<br/>gini = 0.537<br/>samples = 38<br/>value = [0, 0, 15, 21, 1, 1, 0]<br/>class = 6>, fillcolor="#39e5e243"] ;
650 -> 651 ;
652 [label=<density &le; 0.993<br/>gini = 0.292<br/>samples = 12<br/>value = [0, 0, 1, 10, 0, 1, 0]<br/>class = 6>, fillcolor="#39e5e2d1"] ;
651 -> 652 ;
653 [label=<gini = 0.0<br/>samples = 1<br/>value = [0, 0, 1, 0, 0, 0, 0]<br/>class = 5>, fillcolor="#39e54dff"] ;
652 -> 653 ;
654 [label=<residual.sugar &le; 1.65<br/>gini = 0.165<br/>samples = 11<br/>value = [0, 0, 0, 10, 0, 1, 0]<br/>class = 6>, fillcolor="#39e5e2e6"] ;
652 -> 654 ;
655 [label=<gini = 0.0<br/>samples = 1<br/>value = [0, 0, 0, 0, 0, 1, 0]<br/>class = 8>, fillcolor="#b139e5ff"] ;
654 -> 655 ;
656 [label=<gini = 0.0<br/>samples = 10<br/>value = [0, 0, 0, 10, 0, 0, 0]<br/>class = 6>, fillcolor="#39e5e2ff"] ;
654 -> 656 ;
657 [label=<free.sulfur.dioxide &le; 21.5<br/>gini = 0.53<br/>samples = 26<br/>value = [0, 0, 14, 11, 1, 0, 0]<br/>class = 5>, fillcolor="#39e54d33"] ;
651 -> 657 ;
658 [label=<gini = 0.0<br/>samples = 4<br/>value = [0, 0, 0, 4, 0, 0, 0]<br/>class = 6>, fillcolor="#39e5e2ff"] ;
657 -> 658 ;
659 [label=<free.sulfur.dioxide &le; 57.5<br/>gini = 0.492<br/>samples = 22<br/>value = [0, 0, 14, 7, 1, 0, 0]<br/>class = 5>, fillcolor="#39e54d77"] ;
657 -> 659 ;
660 [label=<pH &le; 3.35<br/>gini = 0.357<br/>samples = 14<br/>value = [0, 0, 11, 2, 1, 0, 0]<br/>class = 5>, fillcolor="#39e54dbf"] ;
659 -> 660 ;
661 [label=<free.sulfur.dioxide &le; 37.0<br/>gini = 0.26<br/>samples = 13<br/>value = [0, 0, 11, 2, 0, 0, 0]<br/>class = 5>, fillcolor="#39e54dd1"] ;
660 -> 661 ;
662 [label=<free.sulfur.dioxide &le; 32.5<br/>gini = 0.48<br/>samples = 5<br/>value = [0, 0, 3, 2, 0, 0, 0]<br/>class = 5>, fillcolor="#39e54d55"] ;
661 -> 662 ;
663 [label=<gini = 0.0<br/>samples = 3<br/>value = [0, 0, 3, 0, 0, 0, 0]<br/>class = 5>, fillcolor="#39e54dff"] ;
662 -> 663 ;
664 [label=<gini = 0.0<br/>samples = 2<br/>value = [0, 0, 0, 2, 0, 0, 0]<br/>class = 6>, fillcolor="#39e5e2ff"] ;
662 -> 664 ;
665 [label=<gini = 0.0<br/>samples = 8<br/>value = [0, 0, 8, 0, 0, 0, 0]<br/>class = 5>, fillcolor="#39e54dff"] ;
661 -> 665 ;
666 [label=<gini = 0.0<br/>samples = 1<br/>value = [0, 0, 0, 0, 1, 0, 0]<br/>class = 7>, fillcolor="#3956e5ff"] ;
660 -> 666 ;
667 [label=<sulphates &le; 0.535<br/>gini = 0.469<br/>samples = 8<br/>value = [0, 0, 3, 5, 0, 0, 0]<br/>class = 6>, fillcolor="#39e5e266"] ;
659 -> 667 ;
668 [label=<gini = 0.0<br/>samples = 5<br/>value = [0, 0, 0, 5, 0, 0, 0]<br/>class = 6>, fillcolor="#39e5e2ff"] ;
667 -> 668 ;
669 [label=<gini = 0.0<br/>samples = 3<br/>value = [0, 0, 3, 0, 0, 0, 0]<br/>class = 5>, fillcolor="#39e54dff"] ;
667 -> 669 ;
670 [label=<pH &le; 3.075<br/>gini = 0.226<br/>samples = 24<br/>value = [0, 0, 1, 21, 2, 0, 0]<br/>class = 6>, fillcolor="#39e5e2dc"] ;
650 -> 670 ;
671 [label=<gini = 0.0<br/>samples = 2<br/>value = [0, 0, 0, 0, 2, 0, 0]<br/>class = 7>, fillcolor="#3956e5ff"] ;
670 -> 671 ;
672 [label=<chlorides &le; 0.036<br/>gini = 0.087<br/>samples = 22<br/>value = [0, 0, 1, 21, 0, 0, 0]<br/>class = 6>, fillcolor="#39e5e2f3"] ;
670 -> 672 ;
673 [label=<volatile.acidity &le; 0.285<br/>gini = 0.5<br/>samples = 2<br/>value = [0, 0, 1, 1, 0, 0, 0]<br/>class = 5>, fillcolor="#39e54d00"] ;
672 -> 673 ;
674 [label=<gini = 0.0<br/>samples = 1<br/>value = [0, 0, 1, 0, 0, 0, 0]<br/>class = 5>, fillcolor="#39e54dff"] ;
673 -> 674 ;
675 [label=<gini = 0.0<br/>samples = 1<br/>value = [0, 0, 0, 1, 0, 0, 0]<br/>class = 6>, fillcolor="#39e5e2ff"] ;
673 -> 675 ;
676 [label=<gini = 0.0<br/>samples = 20<br/>value = [0, 0, 0, 20, 0, 0, 0]<br/>class = 6>, fillcolor="#39e5e2ff"] ;
672 -> 676 ;
677 [label=<fixed.acidity &le; 6.35<br/>gini = 0.496<br/>samples = 89<br/>value = [0, 3, 57, 27, 2, 0, 0]<br/>class = 5>, fillcolor="#39e54d7b"] ;
593 -> 677 ;
678 [label=<chlorides &le; 0.052<br/>gini = 0.391<br/>samples = 15<br/>value = [0, 0, 4, 11, 0, 0, 0]<br/>class = 6>, fillcolor="#39e5e2a2"] ;
677 -> 678 ;
679 [label=<gini = 0.0<br/>samples = 3<br/>value = [0, 0, 3, 0, 0, 0, 0]<br/>class = 5>, fillcolor="#39e54dff"] ;
678 -> 679 ;
680 [label=<alcohol &le; 9.05<br/>gini = 0.153<br/>samples = 12<br/>value = [0, 0, 1, 11, 0, 0, 0]<br/>class = 6>, fillcolor="#39e5e2e8"] ;
678 -> 680 ;
681 [label=<pH &le; 3.235<br/>gini = 0.444<br/>samples = 3<br/>value = [0, 0, 1, 2, 0, 0, 0]<br/>class = 6>, fillcolor="#39e5e27f"] ;
680 -> 681 ;
682 [label=<gini = 0.0<br/>samples = 2<br/>value = [0, 0, 0, 2, 0, 0, 0]<br/>class = 6>, fillcolor="#39e5e2ff"] ;
681 -> 682 ;
683 [label=<gini = 0.0<br/>samples = 1<br/>value = [0, 0, 1, 0, 0, 0, 0]<br/>class = 5>, fillcolor="#39e54dff"] ;
681 -> 683 ;
684 [label=<gini = 0.0<br/>samples = 9<br/>value = [0, 0, 0, 9, 0, 0, 0]<br/>class = 6>, fillcolor="#39e5e2ff"] ;
680 -> 684 ;
685 [label=<citric.acid &le; 0.585<br/>gini = 0.438<br/>samples = 74<br/>value = [0, 3, 53, 16, 2, 0, 0]<br/>class = 5>, fillcolor="#39e54da3"] ;
677 -> 685 ;
686 [label=<sulphates &le; 0.39<br/>gini = 0.407<br/>samples = 71<br/>value = [0, 3, 53, 13, 2, 0, 0]<br/>class = 5>, fillcolor="#39e54db0"] ;
685 -> 686 ;
687 [label=<residual.sugar &le; 5.85<br/>gini = 0.5<br/>samples = 10<br/>value = [0, 0, 5, 5, 0, 0, 0]<br/>class = 5>, fillcolor="#39e54d00"] ;
686 -> 687 ;
688 [label=<gini = 0.0<br/>samples = 4<br/>value = [0, 0, 4, 0, 0, 0, 0]<br/>class = 5>, fillcolor="#39e54dff"] ;
687 -> 688 ;
689 [label=<pH &le; 3.24<br/>gini = 0.278<br/>samples = 6<br/>value = [0, 0, 1, 5, 0, 0, 0]<br/>class = 6>, fillcolor="#39e5e2cc"] ;
687 -> 689 ;
690 [label=<gini = 0.0<br/>samples = 5<br/>value = [0, 0, 0, 5, 0, 0, 0]<br/>class = 6>, fillcolor="#39e5e2ff"] ;
689 -> 690 ;
691 [label=<gini = 0.0<br/>samples = 1<br/>value = [0, 0, 1, 0, 0, 0, 0]<br/>class = 5>, fillcolor="#39e54dff"] ;
689 -> 691 ;
692 [label=<pH &le; 3.505<br/>gini = 0.36<br/>samples = 61<br/>value = [0, 3, 48, 8, 2, 0, 0]<br/>class = 5>, fillcolor="#39e54dc0"] ;
686 -> 692 ;
693 [label=<fixed.acidity &le; 8.35<br/>gini = 0.322<br/>samples = 59<br/>value = [0, 2, 48, 7, 2, 0, 0]<br/>class = 5>, fillcolor="#39e54dc9"] ;
692 -> 693 ;
